booster[0]:
0:[f30<-27.4226551] yes=1,no=2,missing=1
	1:[f30<-28.7718067] yes=3,no=4,missing=3
		3:[f25<0.684915423] yes=7,no=8,missing=7
			7:[f30<-29.0796356] yes=15,no=16,missing=15
				15:[f30<-30.2464142] yes=27,no=28,missing=27
					27:leaf=-0.0538327992
					28:[f0<3.87760806] yes=41,no=42,missing=41
						41:leaf=0.0201342274
						42:leaf=-0.0447761193
				16:leaf=0.00310880807
			8:leaf=0.0201342274
		4:[f20<0.0720094144] yes=9,no=10,missing=9
			9:[f2<3.17676091] yes=17,no=18,missing=17
				17:leaf=0.116778515
				18:leaf=-0.049098473
			10:leaf=0.386138618
	2:[f91<13.5] yes=5,no=6,missing=5
		5:[f49<0.5] yes=11,no=12,missing=11
			11:[f28<0.0380277932] yes=19,no=20,missing=19
				19:[f4<0.062592119] yes=29,no=30,missing=29
					29:leaf=-0.0435754173
					30:[f10<37.1645584] yes=43,no=44,missing=43
						43:leaf=0.59202528
						44:leaf=-0.0387096778
				20:[f14<209749.5] yes=31,no=32,missing=31
					31:leaf=0.305263132
					32:leaf=-0.0480000004
			12:[f55<9.5] yes=21,no=22,missing=21
				21:[f76<4.5] yes=33,no=34,missing=33
					33:[f70<5.5] yes=45,no=46,missing=45
						45:leaf=0.0209218245
						46:leaf=0.523364484
					34:[f57<12.5] yes=47,no=48,missing=47
						47:leaf=0.564698935
						48:leaf=0.2533333
				22:[f52<9] yes=35,no=36,missing=35
					35:[f74<11.5] yes=49,no=50,missing=49
						49:leaf=0.594126642
						50:leaf=0.0121573294
					36:[f11<11.6892929] yes=51,no=52,missing=51
						51:leaf=-0.0170848127
						52:leaf=0.422621816
		6:[f4<0.0625005662] yes=13,no=14,missing=13
			13:[f31<-0.110296547] yes=23,no=24,missing=23
				23:[f22<-0.0977929533] yes=37,no=38,missing=37
					37:leaf=0.0684563741
					38:leaf=-0.0362790674
				24:leaf=-0.0514555462
			14:[f51<13.5] yes=25,no=26,missing=25
				25:[f12<0.0250050202] yes=39,no=40,missing=39
					39:leaf=-0.0485496186
					40:[f25<0.179688632] yes=53,no=54,missing=53
						53:leaf=0.584045351
						54:leaf=-0.0485496186
				26:leaf=-0.0501128621
booster[1]:
0:[f30<-59754.6797] yes=1,no=2,missing=1
	1:leaf=0.595965087
	2:[f30<-1821.09692] yes=3,no=4,missing=3
		3:[f30<-49963.7891] yes=5,no=6,missing=5
			5:[f23<-0.448662996] yes=9,no=10,missing=9
				9:leaf=0.388235301
				10:[f25<0.174414903] yes=13,no=14,missing=13
					13:leaf=0.310067117
					14:[f41<-433.702454] yes=17,no=18,missing=17
						17:leaf=0.116778515
						18:leaf=-0.0543535613
			6:leaf=0.590292156
		4:[f11<-54.1500969] yes=7,no=8,missing=7
			7:leaf=0.376165807
			8:[f10<-64.4524765] yes=11,no=12,missing=11
				11:leaf=0.330000013
				12:[f42<192.332031] yes=15,no=16,missing=15
					15:[f9<-52.7584229] yes=19,no=20,missing=19
						19:leaf=0.165100679
						20:leaf=-0.0540718921
					16:leaf=0.21342282
booster[2]:
0:[f91<3.5] yes=1,no=2,missing=1
	1:[f61<3.5] yes=3,no=4,missing=3
		3:[f30<-25.8180161] yes=7,no=8,missing=7
			7:leaf=-0.0535524599
			8:[f70<4.5] yes=15,no=16,missing=15
				15:[f90<10] yes=21,no=22,missing=21
					21:[f14<489.5] yes=31,no=32,missing=31
						31:leaf=0.567420781
						32:leaf=-0.0102890739
					22:[f14<217844.5] yes=33,no=34,missing=33
						33:leaf=0.580220401
						34:leaf=-0.0481178388
				16:leaf=-0.0533374324
		4:[f71<12.5] yes=9,no=10,missing=9
			9:leaf=-0.0544347279
			10:[f8<0.196905643] yes=17,no=18,missing=17
				17:[f14<160308.5] yes=23,no=24,missing=23
					23:leaf=-0.0341968909
					24:leaf=0.482926816
				18:[f6<8.37327576] yes=25,no=26,missing=25
					25:leaf=-0.05256797
					26:[f14<160313.5] yes=35,no=36,missing=35
						35:leaf=-0.0341968909
						36:leaf=0.310067117
	2:[f84<13.5] yes=5,no=6,missing=5
		5:[f51<13.5] yes=11,no=12,missing=11
			11:[f81<13.5] yes=19,no=20,missing=19
				19:[f63<13.5] yes=27,no=28,missing=27
					27:[f91<12.5] yes=37,no=38,missing=37
						37:leaf=-0.0234665163
						38:leaf=-0.0499214269
					28:[f14<4885.5] yes=39,no=40,missing=39
						39:leaf=-0.0393822379
						40:leaf=0.541857302
				20:[f16<0.0199698061] yes=29,no=30,missing=29
					29:leaf=-0.054030668
					30:[f11<7.724123] yes=41,no=42,missing=41
						41:leaf=-0.049690973
						42:leaf=0.591810405
			12:leaf=0.58743453
		6:[f11<7.40808964] yes=13,no=14,missing=13
			13:leaf=0.591321766
			14:leaf=-0.05234899
booster[3]:
0:[f0<1.81254864] yes=1,no=2,missing=1
	1:[f0<-0.940155149] yes=3,no=4,missing=3
		3:leaf=-0.0492597558
		4:leaf=0.591961265
	2:[f6<1.334512] yes=5,no=6,missing=5
		5:[f6<-4.86157894] yes=7,no=8,missing=7
			7:leaf=-0.0495552719
			8:leaf=0.591044784
		6:[f11<6.29667556e-05] yes=9,no=10,missing=9
			9:[f11<-0.000118131502] yes=11,no=12,missing=11
				11:leaf=-0.0541828237
				12:leaf=0.590146005
			10:[f2<1.54752815] yes=13,no=14,missing=13
				13:[f2<-16.9859924] yes=15,no=16,missing=15
					15:leaf=-0.0495552719
					16:leaf=0.570592225
				14:[f10<0.0848113596] yes=17,no=18,missing=17
					17:[f10<-0.00758330105] yes=19,no=20,missing=19
						19:leaf=-0.0544145592
						20:leaf=0.579496861
					18:[f8<0.0245545022] yes=21,no=22,missing=21
						21:leaf=0.131195337
						22:leaf=-0.0537630208
booster[4]:
0:[f10<199.969208] yes=1,no=2,missing=1
	1:[f11<167.968445] yes=3,no=4,missing=3
		3:[f46<0.029564146] yes=7,no=8,missing=7
			7:[f9<114.110855] yes=11,no=12,missing=11
				11:leaf=-0.0405693948
				12:leaf=0.592408478
			8:[f9<198.992462] yes=13,no=14,missing=13
				13:leaf=-0.0545407496
				14:[f9<200.076965] yes=17,no=18,missing=17
					17:leaf=0.21342282
					18:leaf=-0.0488372073
		4:[f42<192.332031] yes=9,no=10,missing=9
			9:leaf=0.591974139
			10:[f0<3.80402827] yes=15,no=16,missing=15
				15:leaf=0.0201342274
				16:leaf=-0.0461538434
	2:[f10<200.406036] yes=5,no=6,missing=5
		5:leaf=0.595224142
		6:leaf=-0.0473394506
booster[5]:
0:[f78<13.5] yes=1,no=2,missing=1
	1:[f81<13.5] yes=3,no=4,missing=3
		3:[f64<8.5] yes=7,no=8,missing=7
			7:[f58<12.5] yes=13,no=14,missing=13
				13:[f14<84.5] yes=19,no=20,missing=19
					19:[f88<0.5] yes=27,no=28,missing=27
						27:leaf=0.246822745
						28:leaf=-0.0543463901
					20:[f9<195.373016] yes=29,no=30,missing=29
						29:leaf=-0.0544190891
						30:leaf=-0.0162839256
				14:[f59<12.5] yes=21,no=22,missing=21
					21:leaf=-0.0544113107
					22:[f14<158080.5] yes=31,no=32,missing=31
						31:leaf=-0.0405693948
						32:leaf=0.53513515
			8:[f91<11.5] yes=15,no=16,missing=15
				15:[f23<-0.447979987] yes=23,no=24,missing=23
					23:[f80<0.5] yes=33,no=34,missing=33
						33:leaf=0.160781145
						34:leaf=-0.0298535265
					24:[f55<9] yes=35,no=36,missing=35
						35:leaf=-0.0540223718
						36:leaf=0.556385636
				16:[f55<1.5] yes=25,no=26,missing=25
					25:[f73<12] yes=37,no=38,missing=37
						37:leaf=-0.0354975015
						38:leaf=0.281927705
					26:[f40<-12.8976574] yes=39,no=40,missing=39
						39:leaf=0.0321126729
						40:leaf=-0.0538624227
		4:[f11<3.38542557] yes=9,no=10,missing=9
			9:[f14<69769.5] yes=17,no=18,missing=17
				17:leaf=-0.0493368693
				18:leaf=0.592694044
			10:leaf=-0.0539880767
	2:[f25<0.170259744] yes=5,no=6,missing=5
		5:[f14<159741.5] yes=11,no=12,missing=11
			11:leaf=0.592484295
			12:leaf=0.116778515
		6:leaf=-0.0530424789
booster[6]:
0:[f46<0.0495404303] yes=1,no=2,missing=1
	1:[f10<-996.029175] yes=3,no=4,missing=3
		3:leaf=0.523809493
		4:[f9<-977.594482] yes=7,no=8,missing=7
			7:leaf=0.310067117
			8:leaf=-0.0545408092
	2:[f30<-25040.4902] yes=5,no=6,missing=5
		5:[f30<-59061.2734] yes=9,no=10,missing=9
			9:leaf=0.116778515
			10:leaf=0.597106218
		6:leaf=-0.0481178388
booster[7]:
0:[f30<-26.0956345] yes=1,no=2,missing=1
	1:[f30<-662.785278] yes=3,no=4,missing=3
		3:[f28<0.0362377465] yes=7,no=8,missing=7
			7:[f50<0.5] yes=13,no=14,missing=13
				13:[f9<77.388916] yes=25,no=26,missing=25
					25:leaf=-0.0530232564
					26:[f9<197.542526] yes=35,no=36,missing=35
						35:leaf=0.557100236
						36:leaf=0.0684563741
				14:leaf=-0.0544860736
			8:[f30<-1805.8645] yes=15,no=16,missing=15
				15:leaf=-0.05137318
				16:leaf=0.58166188
		4:[f46<0.0314765126] yes=9,no=10,missing=9
			9:[f28<-0.0208417475] yes=17,no=18,missing=17
				17:[f9<-1.22019744] yes=27,no=28,missing=27
					27:leaf=0.362637371
					28:leaf=-0.0542955287
				18:leaf=0.564022481
			10:[f11<14.8179388] yes=19,no=20,missing=19
				19:[f20<0.071746543] yes=29,no=30,missing=29
					29:[f30<-27.4090309] yes=37,no=38,missing=37
						37:leaf=0.591016412
						38:leaf=0.252904803
					30:[f10<23.1309929] yes=39,no=40,missing=39
						39:leaf=0.498113215
						40:leaf=-0.05185185
				20:[f10<35.9910889] yes=31,no=32,missing=31
					31:leaf=-0.0538161509
					32:leaf=0.0684563741
	2:[f25<0.179704338] yes=5,no=6,missing=5
		5:[f47<13.5] yes=11,no=12,missing=11
			11:[f10<36.0077057] yes=21,no=22,missing=21
				21:[f55<13.5] yes=33,no=34,missing=33
					33:[f9<31.1523724] yes=41,no=42,missing=41
						41:leaf=-0.051574301
						42:leaf=0.330000013
					34:[f16<0.0485968441] yes=43,no=44,missing=43
						43:leaf=-0.052728951
						44:leaf=0.420427531
				22:leaf=0.489514083
			12:[f11<13.0782738] yes=23,no=24,missing=23
				23:leaf=0.552992344
				24:leaf=-0.0523076914
		6:leaf=0.519101083
booster[8]:
0:[f4<1.43747425] yes=1,no=2,missing=1
	1:[f85<12.5] yes=3,no=4,missing=3
		3:[f19<-0.164987653] yes=7,no=8,missing=7
			7:[f52<0.5] yes=11,no=12,missing=11
				11:[f13<1.15140533] yes=19,no=20,missing=19
					19:leaf=-0.0371681415
					20:leaf=0.433663368
				12:leaf=-0.0542100742
			8:[f23<-0.447789401] yes=13,no=14,missing=13
				13:leaf=-0.0545012951
				14:[f77<0.5] yes=21,no=22,missing=21
					21:[f14<202276.5] yes=29,no=30,missing=29
						29:leaf=-0.0495552719
						30:leaf=0.479329586
					22:leaf=-0.0543912649
		4:[f28<0.0329978317] yes=9,no=10,missing=9
			9:[f28<-0.116420582] yes=15,no=16,missing=15
				15:[f13<1.98728132] yes=23,no=24,missing=23
					23:leaf=-0.0393822379
					24:leaf=0.581564665
				16:[f28<-0.11638023] yes=25,no=26,missing=25
					25:leaf=0.0201342274
					26:leaf=-0.0544885173
			10:[f14<203180.5] yes=17,no=18,missing=17
				17:[f14<202317.5] yes=27,no=28,missing=27
					27:leaf=0.165100679
					28:leaf=0.594054461
				18:leaf=-0.0530734621
	2:[f4<9.7085619] yes=5,no=6,missing=5
		5:leaf=0.58910507
		6:leaf=-0.0482315086
booster[9]:
0:[f12<0.0250050202] yes=1,no=2,missing=1
	1:[f22<-0.236616001] yes=3,no=4,missing=3
		3:leaf=0.597715378
		4:leaf=-0.0541181564
	2:[f13<0.025004914] yes=5,no=6,missing=5
		5:[f13<-15.9456425] yes=7,no=8,missing=7
			7:leaf=-0.0497560948
			8:leaf=0.594548941
		6:[f4<0.0625005662] yes=9,no=10,missing=9
			9:[f60<9.5] yes=11,no=12,missing=11
				11:leaf=-0.0519307554
				12:[f4<-35.5982552] yes=15,no=16,missing=15
					15:leaf=-0.0379746817
					16:leaf=0.593024731
			10:[f5<0.312515169] yes=13,no=14,missing=13
				13:[f30<-3328.93286] yes=17,no=18,missing=17
					17:leaf=-0.0527999997
					18:leaf=0.388235301
				14:leaf=-0.054540623
booster[10]:
0:[f14<0.5] yes=1,no=2,missing=1
	1:leaf=0.482926816
	2:leaf=-0.054540921
booster[11]:
0:[f45<4034.65112] yes=1,no=2,missing=1
	1:leaf=-0.054540921
	2:[f14<2463] yes=3,no=4,missing=3
		3:leaf=-0.0432276651
		4:leaf=0.511836708
booster[12]:
0:[f30<-27.5535507] yes=1,no=2,missing=1
	1:[f30<-28.7718067] yes=3,no=4,missing=3
		3:[f25<0.684915423] yes=7,no=8,missing=7
			7:[f30<-29.0796356] yes=15,no=16,missing=15
				15:[f30<-30.2464142] yes=27,no=28,missing=27
					27:leaf=-0.0534321368
					28:[f10<34.4995651] yes=41,no=42,missing=41
						41:leaf=-0.0442246348
						42:leaf=0.0218519699
				16:leaf=0.00356410863
			8:leaf=0.0195560772
		4:[f27<0.0557925999] yes=9,no=10,missing=9
			9:leaf=0.293446064
			10:[f20<0.0720094144] yes=17,no=18,missing=17
				17:leaf=-0.0483063795
				18:leaf=0.115263879
	2:[f91<13.5] yes=5,no=6,missing=5
		5:[f49<8.5] yes=11,no=12,missing=11
			11:[f67<4.5] yes=19,no=20,missing=19
				19:[f70<5] yes=29,no=30,missing=29
					29:[f81<2.5] yes=43,no=44,missing=43
						43:leaf=0.36989522
						44:leaf=0.0247272439
					30:[f18<0.0160086155] yes=45,no=46,missing=45
						45:leaf=0.0905818269
						46:leaf=0.334150761
				20:[f28<0.0381129086] yes=31,no=32,missing=31
					31:[f4<0.062592119] yes=47,no=48,missing=47
						47:leaf=-0.0454519056
						48:leaf=0.336510628
					32:[f2<3.21289158] yes=49,no=50,missing=49
						49:leaf=0.0710918531
						50:leaf=-0.0462814346
			12:[f70<8] yes=21,no=22,missing=21
				21:[f49<13.5] yes=33,no=34,missing=33
					33:[f4<0.0631381944] yes=51,no=52,missing=51
						51:leaf=-0.0542164855
						52:leaf=0.328797907
					34:[f0<4.01587582] yes=53,no=54,missing=53
						53:leaf=0.163299814
						54:leaf=-0.0522224866
				22:[f45<6.11066753e-12] yes=35,no=36,missing=35
					35:[f13<0.443597972] yes=55,no=56,missing=55
						55:leaf=0.338741958
						56:leaf=0.550922334
					36:[f11<11.4940958] yes=57,no=58,missing=57
						57:leaf=-0.0152577525
						58:leaf=0.181533724
		6:[f4<0.0625005662] yes=13,no=14,missing=13
			13:[f31<-0.110296547] yes=23,no=24,missing=23
				23:[f34<-0.0226759426] yes=37,no=38,missing=37
					37:leaf=0.0683196709
					38:leaf=-0.0364506096
				24:leaf=-0.0512521043
			14:[f51<13.5] yes=25,no=26,missing=25
				25:[f25<0.179688632] yes=39,no=40,missing=39
					39:[f12<0.0250050202] yes=59,no=60,missing=59
						59:leaf=-0.0479955524
						60:leaf=0.331169248
					40:leaf=-0.0485514179
				26:leaf=-0.0495525859
booster[13]:
0:[f30<-59754.6797] yes=1,no=2,missing=1
	1:leaf=0.336230069
	2:[f30<-1821.09692] yes=3,no=4,missing=3
		3:[f30<-49963.7891] yes=5,no=6,missing=5
			5:[f46<0.0406655967] yes=9,no=10,missing=9
				9:[f10<-996.029175] yes=13,no=14,missing=13
					13:leaf=-0.0367825478
					14:leaf=0.322728366
				10:[f14<181734.5] yes=15,no=16,missing=15
					15:leaf=-0.053978581
					16:leaf=0.21167703
			6:leaf=0.336110026
		4:[f11<-54.1500969] yes=7,no=8,missing=7
			7:leaf=0.296176523
			8:[f10<-64.4524765] yes=11,no=12,missing=11
				11:leaf=0.266820997
				12:[f42<195.201248] yes=17,no=18,missing=17
					17:[f9<-52.8574142] yes=19,no=20,missing=19
						19:leaf=0.164172202
						20:leaf=-0.05370019
					18:leaf=0.204247266
booster[14]:
0:[f91<3.5] yes=1,no=2,missing=1
	1:[f61<3.5] yes=3,no=4,missing=3
		3:[f30<-25.8180161] yes=7,no=8,missing=7
			7:leaf=-0.0531524718
			8:[f70<4.5] yes=15,no=16,missing=15
				15:[f81<0.5] yes=21,no=22,missing=21
					21:[f14<210621.5] yes=31,no=32,missing=31
						31:leaf=0.0664283112
						32:leaf=-0.0500361323
					22:[f54<12.5] yes=33,no=34,missing=33
						33:leaf=0.326347679
						34:leaf=-0.0522247031
				16:leaf=-0.0529370196
		4:[f71<12.5] yes=9,no=10,missing=9
			9:leaf=-0.0540893748
			10:[f46<0.0329906233] yes=17,no=18,missing=17
				17:[f14<160308.5] yes=23,no=24,missing=23
					23:leaf=-0.043837551
					24:leaf=0.358374685
				18:[f26<-0.282152385] yes=25,no=26,missing=25
					25:leaf=0.0194707271
					26:leaf=-0.0520811267
	2:[f84<13.5] yes=5,no=6,missing=5
		5:[f51<13.5] yes=11,no=12,missing=11
			11:[f81<13.5] yes=19,no=20,missing=19
				19:[f63<13.5] yes=27,no=28,missing=27
					27:[f91<12.5] yes=35,no=36,missing=35
						35:leaf=-0.0221375134
						36:leaf=-0.0492993444
					28:[f14<4885.5] yes=37,no=38,missing=37
						37:leaf=-0.0385513529
						38:leaf=0.35251537
				20:[f22<-0.150608703] yes=29,no=30,missing=29
					29:leaf=-0.0536439531
					30:[f11<7.724123] yes=39,no=40,missing=39
						39:leaf=-0.049105186
						40:leaf=0.336469859
			12:leaf=0.336745054
		6:[f11<7.40808964] yes=13,no=14,missing=13
			13:leaf=0.336483121
			14:leaf=-0.0518897772
booster[15]:
0:[f0<1.81254864] yes=1,no=2,missing=1
	1:[f0<-0.940155149] yes=3,no=4,missing=3
		3:leaf=-0.0486285873
		4:leaf=0.335800916
	2:[f6<1.334512] yes=5,no=6,missing=5
		5:[f6<-4.86157894] yes=7,no=8,missing=7
			7:leaf=-0.0489684492
			8:leaf=0.336086303
		6:[f11<6.29667556e-05] yes=9,no=10,missing=9
			9:[f11<-0.000118131502] yes=11,no=12,missing=11
				11:leaf=-0.0538154133
				12:leaf=0.338692904
			10:[f2<1.54752815] yes=13,no=14,missing=13
				13:[f2<-16.9859924] yes=15,no=16,missing=15
					15:leaf=-0.048956465
					16:leaf=0.333900303
				14:[f10<0.0848113596] yes=17,no=18,missing=17
					17:[f10<-0.00758330105] yes=19,no=20,missing=19
						19:leaf=-0.054049015
						20:leaf=0.335342735
					18:[f4<0.0625005662] yes=21,no=22,missing=21
						21:leaf=0.00370569644
						22:leaf=-0.0538949668
booster[16]:
0:[f30<-659.755127] yes=1,no=2,missing=1
	1:[f30<-1770.68726] yes=3,no=4,missing=3
		3:leaf=-0.054076869
		4:[f26<-0.268517435] yes=5,no=6,missing=5
			5:[f25<0.174534321] yes=7,no=8,missing=7
				7:[f11<7.84851837] yes=9,no=10,missing=9
					9:leaf=-0.0477978513
					10:[f15<-0.117402032] yes=13,no=14,missing=13
						13:leaf=-0.0307695214
						14:leaf=0.336926728
				8:[f26<-0.418865204] yes=11,no=12,missing=11
					11:leaf=0.297459781
					12:leaf=-0.0522219241
			6:leaf=-0.0529632047
	2:leaf=-0.0541990995
booster[17]:
0:[f78<13.5] yes=1,no=2,missing=1
	1:[f81<13.5] yes=3,no=4,missing=3
		3:[f64<8.5] yes=7,no=8,missing=7
			7:[f58<12.5] yes=13,no=14,missing=13
				13:[f14<84.5] yes=19,no=20,missing=19
					19:[f88<0.5] yes=27,no=28,missing=27
						27:leaf=0.198000595
						28:leaf=-0.053990569
					20:[f9<195.373016] yes=29,no=30,missing=29
						29:leaf=-0.0540695861
						30:leaf=-0.015002422
				14:[f59<12.5] yes=21,no=22,missing=21
					21:leaf=-0.0540583394
					22:[f14<158080.5] yes=31,no=32,missing=31
						31:leaf=-0.0397846736
						32:leaf=0.351521134
			8:[f91<11.5] yes=15,no=16,missing=15
				15:[f23<-0.447979987] yes=23,no=24,missing=23
					23:[f64<9.5] yes=33,no=34,missing=33
						33:leaf=0.0727386028
						34:leaf=-0.037570592
					24:[f55<9] yes=35,no=36,missing=35
						35:leaf=-0.0536441281
						36:leaf=0.324350864
				16:[f55<1.5] yes=25,no=26,missing=25
					25:[f75<1.5] yes=37,no=38,missing=37
						37:leaf=0.136230528
						38:leaf=-0.0538147278
					26:[f40<-12.8976574] yes=39,no=40,missing=39
						39:leaf=0.0313529037
						40:leaf=-0.0534761921
		4:[f11<3.38542557] yes=9,no=10,missing=9
			9:[f14<69769.5] yes=17,no=18,missing=17
				17:leaf=-0.048738014
				18:leaf=0.336558938
			10:leaf=-0.0536004491
	2:[f25<0.170259744] yes=5,no=6,missing=5
		5:[f25<0.17010501] yes=11,no=12,missing=11
			11:leaf=0.0602902547
			12:leaf=0.338105857
		6:leaf=-0.052620437
booster[18]:
0:[f46<0.0495404303] yes=1,no=2,missing=1
	1:[f10<-996.029175] yes=3,no=4,missing=3
		3:leaf=0.328915566
		4:[f9<-977.594482] yes=7,no=8,missing=7
			7:leaf=0.254521489
			8:leaf=-0.0541983247
	2:[f30<-25040.4902] yes=5,no=6,missing=5
		5:[f14<138566.5] yes=9,no=10,missing=9
			9:leaf=0.336695969
			10:leaf=0.0658138618
		6:leaf=-0.0474863015
booster[19]:
0:[f30<-25.7079296] yes=1,no=2,missing=1
	1:[f30<-1471.69385] yes=3,no=4,missing=3
		3:[f61<12.5] yes=7,no=8,missing=7
			7:[f50<0.5] yes=15,no=16,missing=15
				15:[f86<0.5] yes=27,no=28,missing=27
					27:leaf=0.268281937
					28:leaf=-0.0514729694
				16:leaf=-0.0541104749
			8:[f28<0.0311360061] yes=17,no=18,missing=17
				17:leaf=-0.0487028211
				18:leaf=0.298653513
		4:[f11<14.8902283] yes=9,no=10,missing=9
			9:[f46<0.0314765126] yes=19,no=20,missing=19
				19:[f28<-0.0208417475] yes=29,no=30,missing=29
					29:[f9<-1.22019744] yes=35,no=36,missing=35
						35:leaf=0.280816615
						36:leaf=-0.0538437329
					30:[f8<2.30417681] yes=37,no=38,missing=37
						37:leaf=0.102510683
						38:leaf=0.339490354
				20:[f20<0.0719756037] yes=31,no=32,missing=31
					31:[f2<1.57502258] yes=39,no=40,missing=39
						39:leaf=-0.0513874851
						40:leaf=0.327609628
					32:[f10<23.899931] yes=41,no=42,missing=41
						41:leaf=0.243083104
						42:leaf=-0.0517998226
			10:[f21<0.292169571] yes=21,no=22,missing=21
				21:leaf=0.069003813
				22:leaf=-0.0539719053
	2:[f25<0.179664493] yes=5,no=6,missing=5
		5:[f47<13.5] yes=11,no=12,missing=11
			11:[f10<36.0077057] yes=23,no=24,missing=23
				23:[f55<13.5] yes=33,no=34,missing=33
					33:[f9<3.85841513] yes=43,no=44,missing=43
						43:leaf=0.322203189
						44:leaf=-0.0511659496
					34:[f16<0.0485968441] yes=45,no=46,missing=45
						45:leaf=-0.0521968305
						46:leaf=0.279463589
				24:leaf=0.334744781
			12:[f11<13.0782738] yes=25,no=26,missing=25
				25:leaf=0.354223698
				26:leaf=-0.0518465005
		6:[f17<-0.153041765] yes=13,no=14,missing=13
			13:leaf=0.0688299909
			14:leaf=0.331697762
booster[20]:
0:[f4<1.43747425] yes=1,no=2,missing=1
	1:[f85<12.5] yes=3,no=4,missing=3
		3:[f19<-0.164987653] yes=7,no=8,missing=7
			7:[f52<0.5] yes=11,no=12,missing=11
				11:[f13<1.15140533] yes=19,no=20,missing=19
					19:leaf=-0.0363594182
					20:leaf=0.303307146
				12:leaf=-0.0538454428
			8:[f23<-0.447789401] yes=13,no=14,missing=13
				13:leaf=-0.0541575439
				14:[f77<0.5] yes=21,no=22,missing=21
					21:[f14<202276.5] yes=27,no=28,missing=27
						27:leaf=-0.0489674658
						28:leaf=0.339406908
					22:leaf=-0.0540399626
		4:[f28<0.0329978317] yes=9,no=10,missing=9
			9:[f28<-0.116396025] yes=15,no=16,missing=15
				15:[f49<12.5] yes=23,no=24,missing=23
					23:leaf=-0.040426638
					24:[f14<986.5] yes=29,no=30,missing=29
						29:leaf=0.337443322
						30:leaf=0.0602015853
				16:leaf=-0.0541281365
			10:[f14<203180.5] yes=17,no=18,missing=17
				17:[f18<0.0314309448] yes=25,no=26,missing=25
					25:leaf=0.0698396787
					26:leaf=0.338109404
				18:leaf=-0.052704569
	2:[f4<9.7085619] yes=5,no=6,missing=5
		5:leaf=0.335590333
		6:leaf=-0.0475832224
booster[21]:
0:[f12<0.0250050202] yes=1,no=2,missing=1
	1:[f22<-0.236616001] yes=3,no=4,missing=3
		3:leaf=0.337574661
		4:leaf=-0.0537453368
	2:[f13<0.025004914] yes=5,no=6,missing=5
		5:[f13<-15.9456425] yes=7,no=8,missing=7
			7:leaf=-0.0491892397
			8:leaf=0.337206215
		6:[f4<0.0625005662] yes=9,no=10,missing=9
			9:[f60<9.5] yes=11,no=12,missing=11
				11:leaf=-0.0517307818
				12:[f4<-35.5982552] yes=15,no=16,missing=15
					15:leaf=-0.0371328555
					16:leaf=0.33916831
			10:[f5<0.312515169] yes=13,no=14,missing=13
				13:[f30<-3328.93286] yes=17,no=18,missing=17
					17:leaf=-0.0523602478
					18:leaf=0.291606009
				14:leaf=-0.0541993156
booster[22]:
0:[f14<0.5] yes=1,no=2,missing=1
	1:leaf=0.339934081
	2:leaf=-0.0541980341
booster[23]:
0:[f45<4034.65112] yes=1,no=2,missing=1
	1:leaf=-0.0541980676
	2:[f14<2463] yes=3,no=4,missing=3
		3:leaf=-0.04247839
		4:leaf=0.345881045
booster[24]:
0:[f30<-28.2126045] yes=1,no=2,missing=1
	1:[f30<-29.0796356] yes=3,no=4,missing=3
		3:[f25<0.684915423] yes=7,no=8,missing=7
			7:[f30<-30.2464142] yes=15,no=16,missing=15
				15:leaf=-0.0530834571
				16:[f12<1.98159945] yes=21,no=22,missing=21
					21:leaf=-0.0437175483
					22:leaf=0.0228541102
			8:leaf=0.0194112752
		4:[f27<0.0557903647] yes=9,no=10,missing=9
			9:leaf=0.214111611
			10:leaf=-0.0449511372
	2:[f12<0.0250050202] yes=5,no=6,missing=5
		5:[f3<8.1474781] yes=11,no=12,missing=11
			11:leaf=-0.0540094078
			12:leaf=0.0140854716
		6:[f91<13.5] yes=13,no=14,missing=13
			13:[f49<8.5] yes=17,no=18,missing=17
				17:[f67<4.5] yes=23,no=24,missing=23
					23:[f79<3.5] yes=31,no=32,missing=31
						31:leaf=0.0179503746
						32:leaf=0.211202547
					24:[f55<13.5] yes=33,no=34,missing=33
						33:leaf=0.243815854
						34:leaf=0.0461566038
				18:[f70<8] yes=25,no=26,missing=25
					25:[f49<13.5] yes=35,no=36,missing=35
						35:leaf=0.232366428
						36:leaf=-0.0392991453
					26:[f45<6.46025455e-11] yes=37,no=38,missing=37
						37:leaf=0.179464683
						38:leaf=0.00614556624
			14:[f4<0.0625005662] yes=19,no=20,missing=19
				19:[f31<-0.110296547] yes=27,no=28,missing=27
					27:[f27<0.0567619801] yes=39,no=40,missing=39
						39:leaf=-0.0365856774
						40:leaf=0.0686074868
					28:leaf=-0.0511401482
				20:[f51<13.5] yes=29,no=30,missing=29
					29:[f10<16.9834213] yes=41,no=42,missing=41
						41:leaf=-0.0489888266
						42:leaf=0.240608126
					30:leaf=-0.0490389615
booster[25]:
0:[f30<-59754.6797] yes=1,no=2,missing=1
	1:leaf=0.244261369
	2:[f30<-1821.09692] yes=3,no=4,missing=3
		3:[f46<0.0490485653] yes=5,no=6,missing=5
			5:[f10<-996.029175] yes=9,no=10,missing=9
				9:leaf=-0.0464272127
				10:[f9<-947.677734] yes=13,no=14,missing=13
					13:leaf=0.0137085682
					14:leaf=0.247523785
			6:leaf=-0.0536541156
		4:[f11<-54.1500969] yes=7,no=8,missing=7
			7:leaf=0.242947459
			8:[f10<-64.4524765] yes=11,no=12,missing=11
				11:leaf=0.223670512
				12:[f11<213.33252] yes=15,no=16,missing=15
					15:[f9<-52.9741592] yes=17,no=18,missing=17
						17:leaf=0.166701108
						18:leaf=-0.0533778071
					16:leaf=0.205869839
booster[26]:
0:[f91<3.5] yes=1,no=2,missing=1
	1:[f61<3.5] yes=3,no=4,missing=3
		3:[f30<-25.8180161] yes=7,no=8,missing=7
			7:leaf=-0.0527991019
			8:[f70<4.5] yes=15,no=16,missing=15
				15:[f90<10] yes=21,no=22,missing=21
					21:[f14<489.5] yes=31,no=32,missing=31
						31:leaf=0.248138905
						32:leaf=-0.0196322296
					22:[f14<217844.5] yes=33,no=34,missing=33
						33:leaf=0.244414136
						34:leaf=-0.0510818362
				16:leaf=-0.0525743738
		4:[f71<12.5] yes=9,no=10,missing=9
			9:leaf=-0.0537948683
			10:[f46<0.0329906233] yes=17,no=18,missing=17
				17:[f14<160308.5] yes=23,no=24,missing=23
					23:leaf=-0.04318019
					24:leaf=0.275126517
				18:[f40<-4.02638578] yes=25,no=26,missing=25
					25:leaf=0.0209138039
					26:leaf=-0.0517255068
	2:[f84<13.5] yes=5,no=6,missing=5
		5:[f51<13.5] yes=11,no=12,missing=11
			11:[f81<13.5] yes=19,no=20,missing=19
				19:[f91<12.5] yes=27,no=28,missing=27
					27:[f64<1.5] yes=35,no=36,missing=35
						35:leaf=0.133372039
						36:leaf=-0.0268575307
					28:[f63<13.5] yes=37,no=38,missing=37
						37:leaf=-0.0487308912
						38:leaf=0.233408719
				20:[f16<0.0199698061] yes=29,no=30,missing=29
					29:leaf=-0.0533061288
					30:[f11<7.724123] yes=39,no=40,missing=39
						39:leaf=-0.0485712774
						40:leaf=0.244950756
			12:leaf=0.245722607
		6:[f11<7.40808964] yes=13,no=14,missing=13
			13:leaf=0.245058089
			14:leaf=-0.0514806472
booster[27]:
0:[f0<1.81254864] yes=1,no=2,missing=1
	1:[f0<-0.940155149] yes=3,no=4,missing=3
		3:leaf=-0.0480574146
		4:leaf=0.244143084
	2:[f6<1.334512] yes=5,no=6,missing=5
		5:[f6<-4.86157894] yes=7,no=8,missing=7
			7:leaf=-0.0484294258
			8:leaf=0.244551688
		6:[f11<6.29667556e-05] yes=9,no=10,missing=9
			9:[f11<-0.000118131502] yes=11,no=12,missing=11
				11:leaf=-0.0534972027
				12:leaf=0.247542068
			10:[f2<1.54752815] yes=13,no=14,missing=13
				13:[f2<-16.9859924] yes=15,no=16,missing=15
					15:leaf=-0.0484134518
					16:leaf=0.243976071
				14:[f10<0.0848113596] yes=17,no=18,missing=17
					17:[f10<-0.00758330105] yes=19,no=20,missing=19
						19:leaf=-0.0537394769
						20:leaf=0.244631872
					18:[f4<0.0625005662] yes=21,no=22,missing=21
						21:leaf=0.00475798408
						22:leaf=-0.0535842292
booster[28]:
0:[f30<-659.755127] yes=1,no=2,missing=1
	1:[f30<-1770.68726] yes=3,no=4,missing=3
		3:leaf=-0.0537658222
		4:[f26<-0.268517435] yes=5,no=6,missing=5
			5:[f15<-0.11734888] yes=7,no=8,missing=7
				7:leaf=-0.0511877127
				8:[f11<7.84851837] yes=9,no=10,missing=9
					9:leaf=-0.0500614755
					10:[f11<213.33252] yes=11,no=12,missing=11
						11:leaf=0.245256349
						12:leaf=-0.0282027554
			6:leaf=-0.0526149571
	2:leaf=-0.0539070666
booster[29]:
0:[f78<13.5] yes=1,no=2,missing=1
	1:[f81<13.5] yes=3,no=4,missing=3
		3:[f64<8.5] yes=7,no=8,missing=7
			7:[f58<12.5] yes=13,no=14,missing=13
				13:[f14<84.5] yes=19,no=20,missing=19
					19:[f88<0.5] yes=27,no=28,missing=27
						27:leaf=0.165272638
						28:leaf=-0.0536876284
					20:[f9<195.373016] yes=29,no=30,missing=29
						29:leaf=-0.0537682474
						30:leaf=-0.0140143428
				14:[f59<12.5] yes=21,no=22,missing=21
					21:leaf=-0.0537526421
					22:[f14<158080.5] yes=31,no=32,missing=31
						31:leaf=-0.0390763097
						32:leaf=0.269255608
			8:[f91<11.5] yes=15,no=16,missing=15
				15:[f23<-0.447979987] yes=23,no=24,missing=23
					23:[f80<1.5] yes=33,no=34,missing=33
						33:leaf=0.103121616
						34:leaf=-0.0313672274
					24:[f91<9] yes=35,no=36,missing=35
						35:leaf=-0.053331919
						36:leaf=0.237584159
				16:[f55<1.5] yes=25,no=26,missing=25
					25:[f75<1.5] yes=37,no=38,missing=37
						37:leaf=0.118671887
						38:leaf=-0.0534880161
					26:[f40<-10.7548218] yes=39,no=40,missing=39
						39:leaf=0.0219581444
						40:leaf=-0.0531951971
		4:[f11<3.38542557] yes=9,no=10,missing=9
			9:[f14<69769.5] yes=17,no=18,missing=17
				17:leaf=-0.0481913276
				18:leaf=0.245027691
			10:leaf=-0.0532617159
	2:[f25<0.170259744] yes=5,no=6,missing=5
		5:[f25<0.170103878] yes=11,no=12,missing=11
			11:leaf=0.0207959395
			12:leaf=0.246512726
		6:leaf=-0.0522462428
booster[30]:
0:[f46<0.0495404303] yes=1,no=2,missing=1
	1:[f10<-996.029175] yes=3,no=4,missing=3
		3:leaf=0.243916616
		4:[f9<-977.594482] yes=7,no=8,missing=7
			7:leaf=0.213293746
			8:leaf=-0.0539052561
	2:[f30<-25040.4902] yes=5,no=6,missing=5
		5:[f17<-0.0859180242] yes=9,no=10,missing=9
			9:leaf=0.244564325
			10:leaf=0.0577076338
		6:leaf=-0.0469116159
booster[31]:
0:[f30<-25.3063278] yes=1,no=2,missing=1
	1:[f30<-1471.69385] yes=3,no=4,missing=3
		3:[f61<12.5] yes=7,no=8,missing=7
			7:[f50<0.5] yes=15,no=16,missing=15
				15:[f86<0.5] yes=27,no=28,missing=27
					27:[f9<186.006027] yes=35,no=36,missing=35
						35:leaf=0.0625148639
						36:leaf=0.230147108
					28:leaf=-0.0510267392
				16:leaf=-0.0537960231
			8:[f28<0.0311360061] yes=17,no=18,missing=17
				17:leaf=-0.048167903
				18:leaf=0.228921577
		4:[f11<14.8902283] yes=9,no=10,missing=9
			9:[f46<0.0305145495] yes=19,no=20,missing=19
				19:[f14<135250.5] yes=29,no=30,missing=29
					29:leaf=-0.0534706376
					30:leaf=0.242187902
				20:[f20<0.071746543] yes=31,no=32,missing=31
					31:[f2<1.57502258] yes=37,no=38,missing=37
						37:leaf=-0.0509559773
						38:leaf=0.232460484
					32:[f10<23.7655659] yes=39,no=40,missing=39
						39:leaf=0.264320225
						40:leaf=-0.0529211536
			10:[f69<12.5] yes=21,no=22,missing=21
				21:leaf=-0.0536677614
				22:leaf=0.0639578775
	2:[f47<13.5] yes=5,no=6,missing=5
		5:[f25<0.179664493] yes=11,no=12,missing=11
			11:[f10<36.0077057] yes=23,no=24,missing=23
				23:[f55<13.5] yes=33,no=34,missing=33
					33:[f9<31.1523724] yes=41,no=42,missing=41
						41:leaf=-0.050818678
						42:leaf=0.289098233
					34:[f16<0.0485968441] yes=43,no=44,missing=43
						43:leaf=-0.051793851
						44:leaf=0.217758134
				24:leaf=0.257221639
			12:[f19<-0.164039031] yes=25,no=26,missing=25
				25:leaf=0.0582955889
				26:leaf=0.24823676
		6:[f11<13.0782738] yes=13,no=14,missing=13
			13:leaf=0.269653767
			14:leaf=-0.0514353998
booster[32]:
0:[f4<1.43747425] yes=1,no=2,missing=1
	1:[f85<12.5] yes=3,no=4,missing=3
		3:[f19<-0.164987653] yes=7,no=8,missing=7
			7:[f52<0.5] yes=11,no=12,missing=11
				11:[f13<1.15140533] yes=19,no=20,missing=19
					19:leaf=-0.0356350914
					20:leaf=0.232839704
				12:leaf=-0.0535290837
			8:[f23<-0.447789401] yes=13,no=14,missing=13
				13:leaf=-0.0538627096
				14:[f77<0.5] yes=21,no=22,missing=21
					21:[f14<202276.5] yes=27,no=28,missing=27
						27:leaf=-0.0484383292
						28:leaf=0.266042799
					22:leaf=-0.0537319258
		4:[f28<0.0329978317] yes=9,no=10,missing=9
			9:[f28<-0.116396025] yes=15,no=16,missing=15
				15:[f13<1.98728132] yes=23,no=24,missing=23
					23:leaf=-0.0393754654
					24:[f11<18.6925888] yes=29,no=30,missing=29
						29:leaf=0.0636781976
						30:leaf=0.244462401
				16:leaf=-0.0538261794
			10:[f14<203180.5] yes=17,no=18,missing=17
				17:[f18<0.0314309448] yes=25,no=26,missing=25
					25:leaf=0.0650826991
					26:leaf=0.246265799
				18:leaf=-0.0523770116
	2:[f4<9.7085619] yes=5,no=6,missing=5
		5:leaf=0.244255215
		6:leaf=-0.0469911359
booster[33]:
0:[f12<0.0250050202] yes=1,no=2,missing=1
	1:[f22<-0.236616001] yes=3,no=4,missing=3
		3:leaf=0.245839998
		4:leaf=-0.0534230359
	2:[f13<0.025004914] yes=5,no=6,missing=5
		5:[f13<-15.9456425] yes=7,no=8,missing=7
			7:leaf=-0.0486649424
			8:leaf=0.245665595
		6:[f4<0.0625005662] yes=9,no=10,missing=9
			9:[f60<9.5] yes=11,no=12,missing=11
				11:leaf=-0.0515221134
				12:[f4<-35.5982552] yes=15,no=16,missing=15
					15:leaf=-0.0363242999
					16:leaf=0.248890758
			10:[f5<0.312515169] yes=13,no=14,missing=13
				13:[f30<-3328.93286] yes=17,no=18,missing=17
					17:leaf=-0.0519670546
					18:leaf=0.231547743
				14:leaf=-0.0539073944
booster[34]:
0:[f14<0.5] yes=1,no=2,missing=1
	1:leaf=0.265897691
	2:leaf=-0.0539047085
booster[35]:
0:[f45<4034.65112] yes=1,no=2,missing=1
	1:leaf=-0.0539047606
	2:[f14<2463] yes=3,no=4,missing=3
		3:leaf=-0.0417982414
		4:leaf=0.266712695
booster[36]:
0:[f30<-28.4629879] yes=1,no=2,missing=1
	1:[f30<-29.0796356] yes=3,no=4,missing=3
		3:[f25<0.684915423] yes=7,no=8,missing=7
			7:[f30<-30.2464142] yes=15,no=16,missing=15
				15:leaf=-0.052754879
				16:[f70<5] yes=21,no=22,missing=21
					21:leaf=0.0228504632
					22:leaf=-0.0431636833
			8:leaf=0.0192944221
		4:[f27<0.0558982193] yes=9,no=10,missing=9
			9:leaf=0.114445388
			10:leaf=-0.0390768461
	2:[f12<0.0250050202] yes=5,no=6,missing=5
		5:[f3<8.1474781] yes=11,no=12,missing=11
			11:leaf=-0.0536890328
			12:leaf=0.0145306578
		6:[f4<0.0625005662] yes=13,no=14,missing=13
			13:[f24<0.256055385] yes=17,no=18,missing=17
				17:[f34<-0.0417888649] yes=23,no=24,missing=23
					23:leaf=0.07152652
					24:leaf=-0.0381093137
				18:[f51<12] yes=25,no=26,missing=25
					25:leaf=-0.0554853976
					26:leaf=0.0141833378
			14:[f13<0.0500101745] yes=19,no=20,missing=19
				19:[f14<91436] yes=27,no=28,missing=27
					27:leaf=-0.0543881319
					28:leaf=0.0228786208
				20:[f91<12.5] yes=29,no=30,missing=29
					29:[f23<-0.448002636] yes=31,no=32,missing=31
						31:leaf=0.17383115
						32:leaf=0.0912538767
					30:[f51<13.5] yes=33,no=34,missing=33
						33:leaf=0.191570625
						34:leaf=-0.0485298224
booster[37]:
0:[f30<-59754.6797] yes=1,no=2,missing=1
	1:[f25<0.184055209] yes=3,no=4,missing=3
		3:leaf=0.194750369
		4:leaf=0.0591284819
	2:[f30<-1821.09692] yes=5,no=6,missing=5
		5:[f46<0.0490485653] yes=7,no=8,missing=7
			7:[f10<-996.029175] yes=11,no=12,missing=11
				11:leaf=-0.0458549149
				12:[f15<-0.138864353] yes=15,no=16,missing=15
					15:leaf=0.0123953326
					16:leaf=0.196662769
			8:leaf=-0.0533569157
		6:[f11<-54.1500969] yes=9,no=10,missing=9
			9:leaf=0.20657289
			10:[f10<-64.4524765] yes=13,no=14,missing=13
				13:leaf=0.19226177
				14:[f11<213.33252] yes=17,no=18,missing=17
					17:[f9<-52.9741592] yes=19,no=20,missing=19
						19:leaf=0.150376722
						20:leaf=-0.0530763157
					18:leaf=0.179535106
booster[38]:
0:[f91<3.5] yes=1,no=2,missing=1
	1:[f61<3.5] yes=3,no=4,missing=3
		3:[f30<-25.8180161] yes=7,no=8,missing=7
			7:leaf=-0.0524619818
			8:[f70<4.5] yes=15,no=16,missing=15
				15:[f54<12.5] yes=21,no=22,missing=21
					21:[f81<0.5] yes=31,no=32,missing=31
						31:leaf=-0.0345678143
						32:leaf=0.190632895
					22:leaf=-0.0544954017
				16:leaf=-0.0522369705
		4:[f71<12.5] yes=9,no=10,missing=9
			9:leaf=-0.0535221212
			10:[f46<0.0329906233] yes=17,no=18,missing=17
				17:[f14<160308.5] yes=23,no=24,missing=23
					23:leaf=-0.0425259881
					24:leaf=0.226482108
				18:[f6<8.21531963] yes=25,no=26,missing=25
					25:leaf=-0.0513829291
					26:leaf=0.0224274583
	2:[f84<13.5] yes=5,no=6,missing=5
		5:[f51<13.5] yes=11,no=12,missing=11
			11:[f81<13.5] yes=19,no=20,missing=19
				19:[f60<13.5] yes=27,no=28,missing=27
					27:[f91<12.5] yes=33,no=34,missing=33
						33:leaf=-0.0220006797
						34:leaf=-0.0471812449
					28:[f47<8.5] yes=35,no=36,missing=35
						35:leaf=-0.0514995344
						36:leaf=0.533211231
				20:[f22<-0.150608703] yes=29,no=30,missing=29
					29:leaf=-0.0529843234
					30:[f11<7.724123] yes=37,no=38,missing=37
						37:leaf=-0.0480447784
						38:leaf=0.195624694
			12:leaf=0.196138397
		6:[f11<7.40808964] yes=13,no=14,missing=13
			13:leaf=0.198188707
			14:leaf=-0.0510845482
booster[39]:
0:[f0<1.81254864] yes=1,no=2,missing=1
	1:[f0<-0.940155149] yes=3,no=4,missing=3
		3:leaf=-0.0475034416
		4:leaf=0.194922134
	2:[f6<1.334512] yes=5,no=6,missing=5
		5:[f6<-4.86157894] yes=7,no=8,missing=7
			7:leaf=-0.0478982367
			8:leaf=0.194831118
		6:[f11<6.29667556e-05] yes=9,no=10,missing=9
			9:[f11<-0.000118131502] yes=11,no=12,missing=11
				11:leaf=-0.0532023087
				12:leaf=0.19829832
			10:[f2<1.54752815] yes=13,no=14,missing=13
				13:[f2<-16.9859924] yes=15,no=16,missing=15
					15:leaf=-0.0478719398
					16:leaf=0.194551721
				14:[f10<0.0848113596] yes=17,no=18,missing=17
					17:[f10<-0.00758330105] yes=19,no=20,missing=19
						19:leaf=-0.0534531251
						20:leaf=0.199392632
					18:[f8<0.0245545022] yes=21,no=22,missing=21
						21:leaf=0.128270015
						22:leaf=-0.0527117662
booster[40]:
0:[f30<-659.755127] yes=1,no=2,missing=1
	1:[f30<-1770.68726] yes=3,no=4,missing=3
		3:leaf=-0.0534764193
		4:[f16<-0.0120957047] yes=5,no=6,missing=5
			5:leaf=-0.0523336902
			6:[f15<-0.11734888] yes=7,no=8,missing=7
				7:leaf=-0.0507903807
				8:[f11<7.84851837] yes=9,no=10,missing=9
					9:leaf=-0.0497690849
					10:[f42<192.332031] yes=11,no=12,missing=11
						11:leaf=0.195537791
						12:leaf=0.00535795465
	2:leaf=-0.0536381379
booster[41]:
0:[f64<8.5] yes=1,no=2,missing=1
	1:[f58<12.5] yes=3,no=4,missing=3
		3:[f14<84.5] yes=7,no=8,missing=7
			7:[f88<0.5] yes=15,no=16,missing=15
				15:[f14<44.5] yes=29,no=30,missing=29
					29:leaf=-0.052123148
					30:leaf=0.324059367
				16:leaf=-0.053414084
			8:[f9<195.373016] yes=17,no=18,missing=17
				17:[f42<192.332031] yes=31,no=32,missing=31
					31:[f25<0.0852217078] yes=47,no=48,missing=47
						47:leaf=-0.0319176503
						48:leaf=-0.053521663
					32:[f80<2.5] yes=49,no=50,missing=49
						49:leaf=0.0225817468
						50:leaf=-0.0404574051
				18:[f80<2] yes=33,no=34,missing=33
					33:leaf=0.0719479322
					34:leaf=-0.0435907096
		4:[f59<12.5] yes=9,no=10,missing=9
			9:leaf=-0.0534728728
			10:[f14<158080.5] yes=19,no=20,missing=19
				19:leaf=-0.0383742601
				20:leaf=0.22188437
	2:[f91<11.5] yes=5,no=6,missing=5
		5:[f23<-0.447979987] yes=11,no=12,missing=11
			11:[f46<0.0319857448] yes=21,no=22,missing=21
				21:[f14<59562] yes=35,no=36,missing=35
					35:leaf=0.468505144
					36:[f18<0.0264219791] yes=51,no=52,missing=51
						51:leaf=-0.0539462827
						52:leaf=0.299130529
				22:[f75<12.5] yes=37,no=38,missing=37
					37:leaf=-0.053998787
					38:[f56<8] yes=53,no=54,missing=53
						53:leaf=0.316198438
						54:leaf=-0.0519727431
			12:[f55<9] yes=23,no=24,missing=23
				23:leaf=-0.0530077703
				24:[f26<-0.282996714] yes=39,no=40,missing=39
					39:leaf=-0.0598313101
					40:[f14<199173.5] yes=55,no=56,missing=55
						55:leaf=0.201139405
						56:leaf=-0.0599506609
		6:[f55<1.5] yes=13,no=14,missing=13
			13:[f75<1.5] yes=25,no=26,missing=25
				25:[f24<0.258825213] yes=41,no=42,missing=41
					41:[f11<0.976177454] yes=57,no=58,missing=57
						57:leaf=0.291016936
						58:leaf=-0.0538863912
					42:[f14<59322.5] yes=59,no=60,missing=59
						59:leaf=0.0645120665
						60:leaf=0.355633825
				26:leaf=-0.0531815588
			14:[f50<0.5] yes=27,no=28,missing=27
				27:[f48<10] yes=43,no=44,missing=43
					43:leaf=-0.0526251607
					44:[f14<139186.5] yes=61,no=62,missing=61
						61:leaf=-0.0473368838
						62:leaf=0.494567484
				28:[f40<-23.7859936] yes=45,no=46,missing=45
					45:[f11<9.85742474] yes=63,no=64,missing=63
						63:leaf=0.0216372013
						64:leaf=-0.0426617451
					46:leaf=-0.0536098778
booster[42]:
0:[f46<0.0495404303] yes=1,no=2,missing=1
	1:[f10<-996.029175] yes=3,no=4,missing=3
		3:leaf=0.19549416
		4:[f9<-977.594482] yes=7,no=8,missing=7
			7:leaf=0.182092652
			8:leaf=-0.0536354892
	2:[f30<-25040.4902] yes=5,no=6,missing=5
		5:[f30<-59584.8906] yes=9,no=10,missing=9
			9:leaf=0.0172567349
			10:leaf=0.194935247
		6:leaf=-0.0463457517
booster[43]:
0:[f30<-25.3063278] yes=1,no=2,missing=1
	1:[f30<-1471.69385] yes=3,no=4,missing=3
		3:[f61<12.5] yes=7,no=8,missing=7
			7:[f50<0.5] yes=15,no=16,missing=15
				15:[f86<0.5] yes=27,no=28,missing=27
					27:[f13<0.278833389] yes=35,no=36,missing=35
						35:leaf=0.191733316
						36:leaf=0.0544118881
					28:leaf=-0.0505934656
				16:leaf=-0.0535068996
			8:[f28<0.0311360061] yes=17,no=18,missing=17
				17:leaf=-0.0476326309
				18:leaf=0.186470851
		4:[f11<14.8902283] yes=9,no=10,missing=9
			9:[f46<0.0314765126] yes=19,no=20,missing=19
				19:[f14<130935.5] yes=29,no=30,missing=29
					29:leaf=-0.05350798
					30:[f66<11] yes=37,no=38,missing=37
						37:leaf=0.200398162
						38:leaf=-0.0451394655
				20:[f30<-27.4090309] yes=31,no=32,missing=31
					31:[f2<1.57502258] yes=39,no=40,missing=39
						39:leaf=-0.0505333729
						40:leaf=0.193432659
					32:[f9<19.0126572] yes=41,no=42,missing=41
						41:leaf=0.268268943
						42:leaf=0.00103152264
			10:[f21<0.291698098] yes=21,no=22,missing=21
				21:leaf=0.070118092
				22:leaf=-0.0533729456
	2:[f47<13.5] yes=5,no=6,missing=5
		5:[f25<0.179664493] yes=11,no=12,missing=11
			11:[f10<36.0077057] yes=23,no=24,missing=23
				23:[f55<13.5] yes=33,no=34,missing=33
					33:[f9<3.85841513] yes=43,no=44,missing=43
						43:leaf=0.285157919
						44:leaf=-0.0503610484
					34:[f16<0.0485968441] yes=45,no=46,missing=45
						45:leaf=-0.051418066
						46:leaf=0.174807787
				24:leaf=0.21333757
			12:[f28<-0.113804221] yes=25,no=26,missing=25
				25:leaf=0.0501116812
				26:leaf=0.200558618
		6:[f11<13.0782738] yes=13,no=14,missing=13
			13:leaf=0.221716329
			14:leaf=-0.0510371886
booster[44]:
0:[f4<1.43747425] yes=1,no=2,missing=1
	1:[f85<12.5] yes=3,no=4,missing=3
		3:[f19<-0.164987653] yes=7,no=8,missing=7
			7:[f52<0.5] yes=13,no=14,missing=13
				13:[f13<1.15140533] yes=21,no=22,missing=21
					21:leaf=-0.0349186175
					22:leaf=0.189083084
				14:leaf=-0.0532354489
			8:[f23<-0.447789401] yes=15,no=16,missing=15
				15:leaf=-0.0535908341
				16:[f77<0.5] yes=23,no=24,missing=23
					23:[f14<202276.5] yes=29,no=30,missing=29
						29:leaf=-0.0479140207
						30:leaf=0.221281603
					24:leaf=-0.0534482561
		4:[f28<0.0329978317] yes=9,no=10,missing=9
			9:[f28<-0.116396025] yes=17,no=18,missing=17
				17:[f49<12.5] yes=25,no=26,missing=25
					25:leaf=-0.0392197929
					26:[f14<987.5] yes=31,no=32,missing=31
						31:leaf=0.195232585
						32:leaf=0.0165461227
				18:leaf=-0.0535469055
			10:[f14<203180.5] yes=19,no=20,missing=19
				19:[f13<0.345152974] yes=27,no=28,missing=27
					27:leaf=0.196786091
					28:leaf=0.0587378144
				20:leaf=-0.0520960689
	2:[f4<9.7085619] yes=5,no=6,missing=5
		5:[f14<93358.5] yes=11,no=12,missing=11
			11:leaf=0.195217371
			12:leaf=0.0578527749
		6:leaf=-0.0464049354
booster[45]:
0:[f61<11.5] yes=1,no=2,missing=1
	1:[f4<0.0625005662] yes=3,no=4,missing=3
		3:[f60<9.5] yes=7,no=8,missing=7
			7:leaf=-0.0512670688
			8:[f4<-35.5982552] yes=15,no=16,missing=15
				15:leaf=-0.0346917026
				16:[f5<1.35978651] yes=29,no=30,missing=29
					29:[f32<-0.0881488323] yes=43,no=44,missing=43
						43:leaf=0.0597942844
						44:leaf=0.201952219
					30:leaf=0.058642298
		4:[f12<0.0250050202] yes=9,no=10,missing=9
			9:[f22<-0.235563144] yes=17,no=18,missing=17
				17:leaf=0.183770731
				18:leaf=-0.0496610552
			10:[f13<0.025004914] yes=19,no=20,missing=19
				19:[f13<-15.9456425] yes=31,no=32,missing=31
					31:leaf=-0.04758114
					32:leaf=0.206830859
				20:[f5<0.312515169] yes=33,no=34,missing=33
					33:[f30<-3328.93286] yes=45,no=46,missing=45
						45:leaf=-0.051223617
						46:leaf=0.190911576
					34:leaf=-0.0536347926
	2:[f46<0.0382062644] yes=5,no=6,missing=5
		5:[f11<4.84529686] yes=11,no=12,missing=11
			11:[f30<-38.2413864] yes=21,no=22,missing=21
				21:leaf=-0.0527148843
				22:[f14<83712.5] yes=35,no=36,missing=35
					35:leaf=-0.0524098538
					36:[f14<201935] yes=47,no=48,missing=47
						47:leaf=0.193564102
						48:leaf=-0.0432194546
			12:[f11<4.98360157] yes=23,no=24,missing=23
				23:[f14<83244.5] yes=37,no=38,missing=37
					37:leaf=-0.0299306959
					38:leaf=0.068044804
				24:leaf=-0.0533904098
		6:[f4<0.0625680387] yes=13,no=14,missing=13
			13:[f23<-0.449385256] yes=25,no=26,missing=25
				25:[f14<8020.5] yes=39,no=40,missing=39
					39:leaf=0.203454897
					40:leaf=0.0597352944
				26:leaf=0.0199125279
			14:[f73<13.5] yes=27,no=28,missing=27
				27:leaf=-0.0535984598
				28:[f12<0.0250956155] yes=41,no=42,missing=41
					41:leaf=0.155272126
					42:leaf=-0.0476608463
booster[46]:
0:[f14<0.5] yes=1,no=2,missing=1
	1:leaf=0.220685199
	2:leaf=-0.0536346547
booster[47]:
0:[f45<4034.65112] yes=1,no=2,missing=1
	1:leaf=-0.0536347218
	2:[f14<2463] yes=3,no=4,missing=3
		3:leaf=-0.0411226675
		4:leaf=0.220163107
booster[48]:
0:[f30<-28.4629879] yes=1,no=2,missing=1
	1:[f30<-29.0796356] yes=3,no=4,missing=3
		3:[f25<0.684915423] yes=7,no=8,missing=7
			7:[f30<-30.2464142] yes=15,no=16,missing=15
				15:leaf=-0.0524397865
				16:[f3<7.95679188] yes=21,no=22,missing=21
					21:leaf=0.0227778032
					22:leaf=-0.0425403267
			8:leaf=0.0187197756
		4:[f27<0.0558570027] yes=9,no=10,missing=9
			9:leaf=0.117353402
			10:leaf=-0.0390337594
	2:[f12<0.0250050202] yes=5,no=6,missing=5
		5:[f3<8.1474781] yes=11,no=12,missing=11
			11:leaf=-0.0533911884
			12:leaf=0.0146820564
		6:[f4<0.0625005662] yes=13,no=14,missing=13
			13:[f24<0.256055385] yes=17,no=18,missing=17
				17:[f9<28.4192085] yes=23,no=24,missing=23
					23:leaf=0.0727235302
					24:leaf=-0.0384138338
				18:[f51<12] yes=25,no=26,missing=25
					25:leaf=-0.0550498366
					26:leaf=0.0139264585
			14:[f13<0.0500101745] yes=19,no=20,missing=19
				19:[f14<91436] yes=27,no=28,missing=27
					27:leaf=-0.0540146604
					28:leaf=0.0228212513
				20:[f91<12.5] yes=29,no=30,missing=29
					29:[f49<8.5] yes=31,no=32,missing=31
						31:leaf=0.150205061
						32:leaf=0.0816231519
					30:[f25<0.179688632] yes=33,no=34,missing=33
						33:leaf=0.160286918
						34:leaf=-0.0499356091
booster[49]:
0:[f30<-1821.09692] yes=1,no=2,missing=1
	1:[f46<0.0490979105] yes=3,no=4,missing=3
		3:[f10<-996.029175] yes=7,no=8,missing=7
			7:leaf=-0.0452684425
			8:[f9<-947.677734] yes=13,no=14,missing=13
				13:leaf=0.0102863368
				14:leaf=0.163870916
		4:[f15<-0.0622849464] yes=9,no=10,missing=9
			9:leaf=-0.0531037226
			10:leaf=0.098574847
	2:[f11<-54.1500969] yes=5,no=6,missing=5
		5:leaf=0.179779097
		6:[f10<-64.4524765] yes=11,no=12,missing=11
			11:leaf=0.167455941
			12:[f11<213.33252] yes=15,no=16,missing=15
				15:[f9<-61.3462982] yes=17,no=18,missing=17
					17:leaf=0.1583675
					18:[f41<67.2094116] yes=19,no=20,missing=19
						19:leaf=-0.0528877787
						20:leaf=-0.0084583452
				16:leaf=0.158522442
booster[50]:
0:[f91<3.5] yes=1,no=2,missing=1
	1:[f61<3.5] yes=3,no=4,missing=3
		3:[f30<-25.8180161] yes=7,no=8,missing=7
			7:leaf=-0.0521349311
			8:[f70<4.5] yes=15,no=16,missing=15
				15:[f14<217844.5] yes=21,no=22,missing=21
					21:[f90<10] yes=31,no=32,missing=31
						31:leaf=0.0831126124
						32:leaf=0.165258154
					22:leaf=-0.0531713627
				16:leaf=-0.0519315973
		4:[f71<12.5] yes=9,no=10,missing=9
			9:leaf=-0.0532923453
			10:[f46<0.0329906233] yes=17,no=18,missing=17
				17:[f14<160308.5] yes=23,no=24,missing=23
					23:leaf=-0.0421777815
					24:leaf=0.19019492
				18:[f28<0.000450864434] yes=25,no=26,missing=25
					25:leaf=0.0224318784
					26:leaf=-0.0510777235
	2:[f84<13.5] yes=5,no=6,missing=5
		5:[f51<13.5] yes=11,no=12,missing=11
			11:[f81<13.5] yes=19,no=20,missing=19
				19:[f91<12.5] yes=27,no=28,missing=27
					27:[f87<0.5] yes=33,no=34,missing=33
						33:leaf=0.115199663
						34:leaf=-0.0250098687
					28:[f63<13.5] yes=35,no=36,missing=35
						35:leaf=-0.0475965552
						36:leaf=0.206200004
				20:[f16<0.0199698061] yes=29,no=30,missing=29
					29:leaf=-0.0526503026
					30:[f11<7.724123] yes=37,no=38,missing=37
						37:leaf=-0.0475635491
						38:leaf=0.166551694
			12:leaf=0.165451825
		6:[f11<7.40808964] yes=13,no=14,missing=13
			13:leaf=0.168764293
			14:leaf=-0.0506933033
booster[51]:
0:[f0<1.81254864] yes=1,no=2,missing=1
	1:[f0<-0.940155149] yes=3,no=4,missing=3
		3:leaf=-0.0469511263
		4:leaf=0.16327557
	2:[f6<1.334512] yes=5,no=6,missing=5
		5:[f6<-4.86157894] yes=7,no=8,missing=7
			7:leaf=-0.0473586172
			8:leaf=0.163345441
		6:[f11<6.29667556e-05] yes=9,no=10,missing=9
			9:[f11<-0.000118131502] yes=11,no=12,missing=11
				11:leaf=-0.0529220179
				12:leaf=0.168954298
			10:[f2<1.54752815] yes=13,no=14,missing=13
				13:[f2<-16.9859924] yes=15,no=16,missing=15
					15:leaf=-0.0473310724
					16:leaf=0.163033843
				14:[f10<0.0848113596] yes=17,no=18,missing=17
					17:[f10<-0.00758330105] yes=19,no=20,missing=19
						19:leaf=-0.0531827696
						20:leaf=0.166325644
					18:[f4<0.0625005662] yes=21,no=22,missing=21
						21:leaf=0.0101492675
						22:leaf=-0.0530256033
booster[52]:
0:[f30<-659.755127] yes=1,no=2,missing=1
	1:[f30<-1770.68726] yes=3,no=4,missing=3
		3:leaf=-0.0532053895
		4:[f14<186293] yes=5,no=6,missing=5
			5:[f15<-0.11734888] yes=7,no=8,missing=7
				7:leaf=-0.0503916517
				8:[f11<7.84851837] yes=9,no=10,missing=9
					9:leaf=-0.0493478663
					10:[f42<192.332031] yes=11,no=12,missing=11
						11:leaf=0.163649082
						12:leaf=0.00451138942
			6:leaf=-0.052179724
	2:leaf=-0.0533856265
booster[53]:
0:[f64<8.5] yes=1,no=2,missing=1
	1:[f58<12.5] yes=3,no=4,missing=3
		3:[f14<84.5] yes=7,no=8,missing=7
			7:[f88<0.5] yes=15,no=16,missing=15
				15:[f14<44.5] yes=29,no=30,missing=29
					29:leaf=-0.0514134839
					30:leaf=0.25419271
				16:leaf=-0.053152658
			8:[f9<195.373016] yes=17,no=18,missing=17
				17:[f42<192.332031] yes=31,no=32,missing=31
					31:[f25<0.0852217078] yes=47,no=48,missing=47
						47:leaf=-0.0309192538
						48:leaf=-0.0532630496
					32:[f6<8.44969749] yes=49,no=50,missing=49
						49:leaf=-0.0398964696
						50:leaf=0.023138253
				18:[f9<303.744385] yes=33,no=34,missing=33
					33:leaf=0.0725334436
					34:leaf=-0.0431122147
		4:[f59<12.5] yes=9,no=10,missing=9
			9:leaf=-0.0532139353
			10:[f14<158080.5] yes=19,no=20,missing=19
				19:leaf=-0.0376621149
				20:leaf=0.190994591
	2:[f91<11.5] yes=5,no=6,missing=5
		5:[f23<-0.447979987] yes=11,no=12,missing=11
			11:[f46<0.0319857448] yes=21,no=22,missing=21
				21:[f46<0.0308687873] yes=35,no=36,missing=35
					35:leaf=-0.0536465235
					36:[f21<0.296379656] yes=51,no=52,missing=51
						51:leaf=0.249301746
						52:leaf=-0.0520678721
				22:[f75<12.5] yes=37,no=38,missing=37
					37:leaf=-0.0537192933
					38:[f56<8] yes=53,no=54,missing=53
						53:leaf=0.234289601
						54:leaf=-0.0516217239
			12:[f55<9] yes=23,no=24,missing=23
				23:leaf=-0.0528298095
				24:[f26<-0.282996714] yes=39,no=40,missing=39
					39:leaf=-0.0592121892
					40:[f14<199173.5] yes=55,no=56,missing=55
						55:leaf=0.169308379
						56:leaf=-0.0595108531
		6:[f55<1.5] yes=13,no=14,missing=13
			13:[f75<1.5] yes=25,no=26,missing=25
				25:[f46<0.037611343] yes=41,no=42,missing=41
					41:[f14<59320.5] yes=57,no=58,missing=57
						57:leaf=-0.0505837612
						58:leaf=0.280186743
					42:[f33<0.0814315826] yes=59,no=60,missing=59
						59:leaf=-0.0523319952
						60:leaf=0.1105901
				26:leaf=-0.0528890379
			14:[f50<0.5] yes=27,no=28,missing=27
				27:[f48<10] yes=43,no=44,missing=43
					43:leaf=-0.0523280166
					44:[f14<139186.5] yes=61,no=62,missing=61
						61:leaf=-0.046805393
						62:leaf=0.351904422
				28:[f40<-23.7859936] yes=45,no=46,missing=45
					45:[f76<9.5] yes=63,no=64,missing=63
						63:leaf=-0.0420915969
						64:leaf=0.0222113132
					46:leaf=-0.0533496737
booster[54]:
0:[f46<0.0495404303] yes=1,no=2,missing=1
	1:[f10<-996.029175] yes=3,no=4,missing=3
		3:leaf=0.164132997
		4:[f9<-977.594482] yes=7,no=8,missing=7
			7:leaf=0.158206239
			8:leaf=-0.0533824153
	2:[f30<-25040.4902] yes=5,no=6,missing=5
		5:[f30<-59584.8906] yes=9,no=10,missing=9
			9:leaf=0.0165144559
			10:leaf=0.163262442
		6:leaf=-0.0457940511
booster[55]:
0:[f30<-25.3063278] yes=1,no=2,missing=1
	1:[f30<-1471.69385] yes=3,no=4,missing=3
		3:[f61<12.5] yes=7,no=8,missing=7
			7:[f50<0.5] yes=15,no=16,missing=15
				15:[f86<0.5] yes=27,no=28,missing=27
					27:[f22<-0.210121453] yes=35,no=36,missing=35
						35:leaf=0.163323566
						36:leaf=0.0497094542
					28:leaf=-0.0501680262
				16:leaf=-0.0532396249
			8:[f28<0.0311360061] yes=17,no=18,missing=17
				17:leaf=-0.0470914654
				18:leaf=0.158007964
		4:[f11<14.8902283] yes=9,no=10,missing=9
			9:[f46<0.0305145495] yes=19,no=20,missing=19
				19:[f14<135250.5] yes=29,no=30,missing=29
					29:leaf=-0.0528871492
					30:leaf=0.161784187
				20:[f19<-0.164568886] yes=31,no=32,missing=31
					31:[f79<12.5] yes=37,no=38,missing=37
						37:leaf=-0.0525109768
						38:leaf=0.162106305
					32:[f2<1.57502258] yes=39,no=40,missing=39
						39:leaf=-0.0501120202
						40:leaf=0.155353934
			10:[f10<134.467712] yes=21,no=22,missing=21
				21:leaf=-0.0531008318
				22:leaf=0.0653796494
	2:[f47<13.5] yes=5,no=6,missing=5
		5:[f25<0.179664493] yes=11,no=12,missing=11
			11:[f10<36.0077057] yes=23,no=24,missing=23
				23:[f55<13.5] yes=33,no=34,missing=33
					33:[f9<31.1523724] yes=41,no=42,missing=41
						41:leaf=-0.0499271415
						42:leaf=0.256860554
					34:[f16<0.0485968441] yes=43,no=44,missing=43
						43:leaf=-0.0510466956
						44:leaf=0.148828715
				24:leaf=0.184151798
			12:[f46<0.0402243249] yes=25,no=26,missing=25
				25:leaf=0.171907827
				26:leaf=0.017950831
		6:[f11<13.0782738] yes=13,no=14,missing=13
			13:leaf=0.19068338
			14:leaf=-0.0506431945
booster[56]:
0:[f4<1.43747425] yes=1,no=2,missing=1
	1:[f85<12.5] yes=3,no=4,missing=3
		3:[f19<-0.164987653] yes=7,no=8,missing=7
			7:[f52<0.5] yes=11,no=12,missing=11
				11:[f13<1.15140533] yes=19,no=20,missing=19
					19:leaf=-0.0341915414
					20:leaf=0.159421369
				12:leaf=-0.052957017
			8:[f23<-0.447789401] yes=13,no=14,missing=13
				13:leaf=-0.0533351488
				14:[f77<0.5] yes=21,no=22,missing=21
					21:[f14<202276.5] yes=27,no=28,missing=27
						27:leaf=-0.0473827943
						28:leaf=0.191260964
					22:leaf=-0.0531874374
		4:[f28<0.0329978317] yes=9,no=10,missing=9
			9:[f28<-0.116396025] yes=15,no=16,missing=15
				15:[f49<12.5] yes=23,no=24,missing=23
					23:leaf=-0.0384647362
					24:[f14<987.5] yes=29,no=30,missing=29
						29:leaf=0.163395986
						30:leaf=0.0152896466
				16:leaf=-0.0532878749
			10:[f14<203180.5] yes=17,no=18,missing=17
				17:[f16<-0.0176557899] yes=25,no=26,missing=25
					25:leaf=0.166576549
					26:leaf=0.0502973907
				18:leaf=-0.0518094972
	2:[f4<9.7085619] yes=5,no=6,missing=5
		5:leaf=0.163184926
		6:leaf=-0.0458136611
booster[57]:
0:[f61<11.5] yes=1,no=2,missing=1
	1:[f4<0.0625005662] yes=3,no=4,missing=3
		3:[f60<9.5] yes=7,no=8,missing=7
			7:leaf=-0.0511403494
			8:[f4<-35.5982552] yes=15,no=16,missing=15
				15:leaf=-0.0339385234
				16:leaf=0.165746599
		4:[f12<0.0250050202] yes=9,no=10,missing=9
			9:[f22<-0.235563144] yes=17,no=18,missing=17
				17:leaf=0.155863583
				18:leaf=-0.0492541008
			10:[f13<0.025004914] yes=19,no=20,missing=19
				19:[f13<-15.9456425] yes=29,no=30,missing=29
					29:leaf=-0.0470438264
					30:leaf=0.171987534
				20:[f5<0.312515169] yes=31,no=32,missing=31
					31:[f30<-3328.93286] yes=39,no=40,missing=39
						39:leaf=-0.0508316867
						40:leaf=0.165090635
					32:leaf=-0.0533809364
	2:[f46<0.0382062644] yes=5,no=6,missing=5
		5:[f11<4.84529686] yes=11,no=12,missing=11
			11:[f30<-38.2413864] yes=21,no=22,missing=21
				21:leaf=-0.0523984917
				22:[f14<83712.5] yes=33,no=34,missing=33
					33:leaf=-0.0520913266
					34:[f91<13.5] yes=41,no=42,missing=41
						41:leaf=0.162048668
						42:leaf=-0.0430842005
			12:[f11<4.98360157] yes=23,no=24,missing=23
				23:[f15<-0.0978942364] yes=35,no=36,missing=35
					35:leaf=-0.0295348801
					36:leaf=0.0650049075
				24:leaf=-0.0531341434
		6:[f4<0.0625680387] yes=13,no=14,missing=13
			13:[f26<-0.339359283] yes=25,no=26,missing=25
				25:leaf=0.168426037
				26:leaf=0.0169109572
			14:[f73<13.5] yes=27,no=28,missing=27
				27:leaf=-0.0533409528
				28:[f12<0.0250956155] yes=37,no=38,missing=37
					37:leaf=0.136632308
					38:leaf=-0.0473211333
booster[58]:
0:[f14<0.5] yes=1,no=2,missing=1
	1:leaf=0.190368876
	2:leaf=-0.0533813946
booster[59]:
0:[f45<4034.65112] yes=1,no=2,missing=1
	1:leaf=-0.0533814691
	2:[f14<2463] yes=3,no=4,missing=3
		3:leaf=-0.0404368453
		4:leaf=0.188987955
booster[60]:
0:[f30<-28.4629879] yes=1,no=2,missing=1
	1:[f30<-29.0796356] yes=3,no=4,missing=3
		3:[f25<0.684915423] yes=7,no=8,missing=7
			7:[f30<-30.2464142] yes=15,no=16,missing=15
				15:leaf=-0.0521358922
				16:[f70<5] yes=21,no=22,missing=21
					21:leaf=0.0227411073
					22:leaf=-0.0419693179
			8:leaf=0.0180745292
		4:[f2<3.18719625] yes=9,no=10,missing=9
			9:leaf=0.10828612
			10:leaf=-0.0384233333
	2:[f12<0.0250050202] yes=5,no=6,missing=5
		5:[f3<8.1474781] yes=11,no=12,missing=11
			11:leaf=-0.0531088375
			12:leaf=0.0150833847
		6:[f4<0.0625005662] yes=13,no=14,missing=13
			13:[f24<0.256055385] yes=17,no=18,missing=17
				17:[f13<0.153446972] yes=23,no=24,missing=23
					23:leaf=-0.0383423418
					24:leaf=0.0725288838
				18:[f51<12] yes=25,no=26,missing=25
					25:leaf=-0.054618299
					26:leaf=0.0144071952
			14:[f27<0.146946549] yes=19,no=20,missing=19
				19:[f13<0.0500101745] yes=27,no=28,missing=27
					27:[f14<91436] yes=31,no=32,missing=31
						31:leaf=-0.0536586531
						32:leaf=0.0228267219
					28:[f49<13.5] yes=33,no=34,missing=33
						33:leaf=0.134650797
						34:leaf=-0.0402718671
				20:[f90<13.5] yes=29,no=30,missing=29
					29:[f55<10.5] yes=35,no=36,missing=35
						35:leaf=0.134761617
						36:leaf=0.0381837822
					30:[f49<0.5] yes=37,no=38,missing=37
						37:leaf=0.123363517
						38:leaf=-0.020675689
booster[61]:
0:[f30<-1821.09692] yes=1,no=2,missing=1
	1:[f46<0.0490979105] yes=3,no=4,missing=3
		3:[f10<-996.029175] yes=7,no=8,missing=7
			7:leaf=-0.0446678959
			8:[f9<-947.677734] yes=13,no=14,missing=13
				13:leaf=0.00956069306
				14:leaf=0.141860008
		4:[f15<-0.0622849464] yes=9,no=10,missing=9
			9:leaf=-0.0528408475
			10:leaf=0.0916804299
	2:[f11<-54.1500969] yes=5,no=6,missing=5
		5:leaf=0.160079867
		6:[f10<-64.4524765] yes=11,no=12,missing=11
			11:leaf=0.149080947
			12:[f11<213.33252] yes=15,no=16,missing=15
				15:[f9<-61.3462982] yes=17,no=18,missing=17
					17:leaf=0.143921629
					18:[f41<67.2094116] yes=19,no=20,missing=19
						19:leaf=-0.0526185893
						20:leaf=-0.00756595656
				16:leaf=0.141482964
booster[62]:
0:[f91<3.5] yes=1,no=2,missing=1
	1:[f61<3.5] yes=3,no=4,missing=3
		3:[f30<-25.8180161] yes=7,no=8,missing=7
			7:leaf=-0.0518144071
			8:[f70<4.5] yes=15,no=16,missing=15
				15:[f54<12.5] yes=23,no=24,missing=23
					23:[f14<217844.5] yes=33,no=34,missing=33
						33:leaf=0.141364425
						34:leaf=-0.0527861305
					24:leaf=-0.0556595139
				16:leaf=-0.0516254976
		4:[f71<12.5] yes=9,no=10,missing=9
			9:leaf=-0.053072799
			10:[f46<0.0329906233] yes=17,no=18,missing=17
				17:[f14<160308.5] yes=25,no=26,missing=25
					25:leaf=-0.0415877439
					26:leaf=0.167806432
				18:[f38<-0.268465608] yes=27,no=28,missing=27
					27:leaf=0.0225052722
					28:leaf=-0.0508001707
	2:[f84<13.5] yes=5,no=6,missing=5
		5:[f81<13.5] yes=11,no=12,missing=11
			11:[f51<13.5] yes=19,no=20,missing=19
				19:[f91<12.5] yes=29,no=30,missing=29
					29:[f64<1.5] yes=35,no=36,missing=35
						35:leaf=0.11724817
						36:leaf=-0.0237971302
					30:[f63<13.5] yes=37,no=38,missing=37
						37:leaf=-0.0470053516
						38:leaf=0.17690967
				20:leaf=0.145308658
			12:[f22<-0.150608703] yes=21,no=22,missing=21
				21:leaf=-0.0523269288
				22:[f11<7.724123] yes=31,no=32,missing=31
					31:leaf=-0.0470679514
					32:leaf=0.14527753
		6:[f11<7.40808964] yes=13,no=14,missing=13
			13:leaf=0.147154227
			14:leaf=-0.0503034256
booster[63]:
0:[f0<1.81254864] yes=1,no=2,missing=1
	1:[f0<-0.940155149] yes=3,no=4,missing=3
		3:leaf=-0.0463915467
		4:leaf=0.141457006
	2:[f6<1.334512] yes=5,no=6,missing=5
		5:[f6<-4.86157894] yes=7,no=8,missing=7
			7:leaf=-0.0468106344
			8:leaf=0.14151822
		6:[f11<6.29667556e-05] yes=9,no=10,missing=9
			9:[f11<-0.000118131502] yes=11,no=12,missing=11
				11:leaf=-0.0526573546
				12:leaf=0.147782132
			10:[f2<1.54752815] yes=13,no=14,missing=13
				13:[f2<-16.9859924] yes=15,no=16,missing=15
					15:leaf=-0.0467799269
					16:leaf=0.141150162
				14:[f10<0.0848113596] yes=17,no=18,missing=17
					17:[f10<-0.00758330105] yes=19,no=20,missing=19
						19:leaf=-0.052928444
						20:leaf=0.146089584
					18:[f4<0.0625005662] yes=21,no=22,missing=21
						21:leaf=0.0104562556
						22:leaf=-0.0527645648
booster[64]:
0:[f30<-659.755127] yes=1,no=2,missing=1
	1:[f30<-1770.68726] yes=3,no=4,missing=3
		3:leaf=-0.0529490225
		4:[f16<-0.0120957047] yes=5,no=6,missing=5
			5:leaf=-0.0517389588
			6:[f15<-0.11734888] yes=7,no=8,missing=7
				7:leaf=-0.0499964841
				8:[f11<7.84851837] yes=9,no=10,missing=9
					9:leaf=-0.0489324369
					10:[f42<192.332031] yes=11,no=12,missing=11
						11:leaf=0.141672269
						12:leaf=0.0038098318
	2:leaf=-0.0531489514
booster[65]:
0:[f64<8.5] yes=1,no=2,missing=1
	1:[f58<12.5] yes=3,no=4,missing=3
		3:[f14<84.5] yes=7,no=8,missing=7
			7:[f88<0.5] yes=15,no=16,missing=15
				15:[f14<44.5] yes=29,no=30,missing=29
					29:leaf=-0.0509250872
					30:leaf=0.208258078
				16:leaf=-0.0529052503
			8:[f9<195.373016] yes=17,no=18,missing=17
				17:[f42<192.332031] yes=31,no=32,missing=31
					31:[f25<0.0852217078] yes=47,no=48,missing=47
						47:leaf=-0.0298891068
						48:leaf=-0.0530177653
					32:[f24<0.264885068] yes=49,no=50,missing=49
						49:leaf=0.0231262222
						50:leaf=-0.0392590165
				18:[f80<2] yes=33,no=34,missing=33
					33:leaf=0.0688338578
					34:leaf=-0.0424112007
		4:[f59<12.5] yes=9,no=10,missing=9
			9:leaf=-0.0529683605
			10:[f14<158080.5] yes=19,no=20,missing=19
				19:leaf=-0.036937844
				20:leaf=0.169225395
	2:[f91<11.5] yes=5,no=6,missing=5
		5:[f23<-0.447979987] yes=11,no=12,missing=11
			11:[f46<0.0319857448] yes=21,no=22,missing=21
				21:[f46<0.0308687873] yes=35,no=36,missing=35
					35:leaf=-0.0533846878
					36:[f21<0.296379656] yes=51,no=52,missing=51
						51:leaf=0.201029763
						52:leaf=-0.051712729
				22:[f75<12.5] yes=37,no=38,missing=37
					37:leaf=-0.0534647591
					38:[f9<24.2984695] yes=53,no=54,missing=53
						53:leaf=0.188333988
						54:leaf=-0.0535176806
			12:[f55<9] yes=23,no=24,missing=23
				23:leaf=-0.0525874272
				24:[f14<151447.5] yes=39,no=40,missing=39
					39:leaf=-0.0587033741
					40:[f14<199173.5] yes=55,no=56,missing=55
						55:leaf=0.147389829
						56:leaf=-0.0592862964
		6:[f55<1.5] yes=13,no=14,missing=13
			13:[f75<1.5] yes=25,no=26,missing=25
				25:[f46<0.037611343] yes=41,no=42,missing=41
					41:[f14<59320.5] yes=57,no=58,missing=57
						57:leaf=-0.0498479232
						58:leaf=0.226278692
					42:[f33<0.0878069326] yes=59,no=60,missing=59
						59:leaf=-0.0518519878
						60:leaf=0.117926262
				26:leaf=-0.052609127
			14:[f50<0.5] yes=27,no=28,missing=27
				27:[f48<10] yes=43,no=44,missing=43
					43:leaf=-0.0520537756
					44:[f14<139186.5] yes=61,no=62,missing=61
						61:leaf=-0.0462717265
						62:leaf=0.276154578
				28:[f40<-23.7859936] yes=45,no=46,missing=45
					45:[f43<-0.080319114] yes=63,no=64,missing=63
						63:leaf=0.0214559622
						64:leaf=-0.0415686443
					46:leaf=-0.0531078763
booster[66]:
0:[f46<0.0495404303] yes=1,no=2,missing=1
	1:[f10<-996.029175] yes=3,no=4,missing=3
		3:leaf=0.142151088
		4:[f9<-977.594482] yes=7,no=8,missing=7
			7:leaf=0.139561817
			8:leaf=-0.0531451814
	2:[f30<-25040.4902] yes=5,no=6,missing=5
		5:[f14<138568.5] yes=9,no=10,missing=9
			9:leaf=0.141420707
			10:leaf=0.0134907467
		6:leaf=-0.0452250503
booster[67]:
0:[f30<-25.3063278] yes=1,no=2,missing=1
	1:[f30<-1471.69385] yes=3,no=4,missing=3
		3:[f61<12.5] yes=7,no=8,missing=7
			7:[f50<0.5] yes=15,no=16,missing=15
				15:[f48<12.5] yes=27,no=28,missing=27
					27:leaf=-0.0498465933
					28:[f17<-0.0846719891] yes=37,no=38,missing=37
						37:leaf=0.0431982763
						38:leaf=0.144255996
				16:leaf=-0.0529867709
			8:[f28<0.0311360061] yes=17,no=18,missing=17
				17:leaf=-0.0465489142
				18:leaf=0.137604222
		4:[f11<14.8902283] yes=9,no=10,missing=9
			9:[f46<0.0314765126] yes=19,no=20,missing=19
				19:[f14<130935.5] yes=29,no=30,missing=29
					29:leaf=-0.0532168113
					30:[f66<11] yes=39,no=40,missing=39
						39:leaf=0.145026132
						40:leaf=-0.0455704629
				20:[f20<0.0719756037] yes=31,no=32,missing=31
					31:[f2<1.57502258] yes=41,no=42,missing=41
						41:leaf=-0.0496889614
						42:leaf=0.138411239
					32:[f10<23.7655659] yes=43,no=44,missing=43
						43:leaf=0.163363457
						44:leaf=-0.0519929044
			10:[f10<134.467712] yes=21,no=22,missing=21
				21:leaf=-0.0528425984
				22:leaf=0.0602488182
	2:[f47<13.5] yes=5,no=6,missing=5
		5:[f25<0.179664493] yes=11,no=12,missing=11
			11:[f55<13.5] yes=23,no=24,missing=23
				23:[f10<36.0077057] yes=33,no=34,missing=33
					33:[f9<3.85841513] yes=45,no=46,missing=45
						45:leaf=0.256052881
						46:leaf=-0.0494672209
					34:leaf=0.16350697
				24:[f16<0.0485968441] yes=35,no=36,missing=35
					35:leaf=-0.0506261587
					36:[f14<120] yes=47,no=48,missing=47
						47:leaf=-0.0578926876
						48:leaf=0.181562707
			12:[f14<586.5] yes=25,no=26,missing=25
				25:leaf=0.0153607009
				26:leaf=0.148434103
		6:[f11<13.0782738] yes=13,no=14,missing=13
			13:leaf=0.168901473
			14:leaf=-0.0502506308
booster[68]:
0:[f61<11.5] yes=1,no=2,missing=1
	1:[f4<1.43747425] yes=3,no=4,missing=3
		3:[f19<-0.164987653] yes=7,no=8,missing=7
			7:[f52<0.5] yes=15,no=16,missing=15
				15:[f13<1.15140533] yes=23,no=24,missing=23
					23:leaf=-0.0334363915
					24:leaf=0.138037607
				16:leaf=-0.0526739955
			8:leaf=-0.0531317107
		4:[f4<9.7085619] yes=9,no=10,missing=9
			9:leaf=0.13360703
			10:leaf=-0.0447807498
	2:[f12<1.99837136] yes=5,no=6,missing=5
		5:[f28<-0.116394565] yes=11,no=12,missing=11
			11:[f13<1.17227447] yes=17,no=18,missing=17
				17:leaf=-0.0482268147
				18:leaf=0.140616164
			12:[f4<1.43725717] yes=19,no=20,missing=19
				19:leaf=-0.0530917905
				20:leaf=0.14036648
		6:[f27<0.0986190438] yes=13,no=14,missing=13
			13:leaf=-0.0525134765
			14:[f55<3] yes=21,no=22,missing=21
				21:leaf=-0.0505661778
				22:[f86<11.5] yes=25,no=26,missing=25
					25:[f14<203180.5] yes=27,no=28,missing=27
						27:leaf=0.145089626
						28:leaf=-0.0414118655
					26:leaf=-0.0472635441
booster[69]:
0:[f61<11.5] yes=1,no=2,missing=1
	1:[f4<0.0625005662] yes=3,no=4,missing=3
		3:[f60<9.5] yes=7,no=8,missing=7
			7:leaf=-0.0509661622
			8:[f4<-35.5982552] yes=15,no=16,missing=15
				15:leaf=-0.0331278332
				16:[f5<1.35978651] yes=29,no=30,missing=29
					29:[f32<-0.0881488323] yes=41,no=42,missing=41
						41:leaf=0.0472384356
						42:leaf=0.145775795
					30:leaf=0.0462510251
		4:[f12<0.0250050202] yes=9,no=10,missing=9
			9:[f22<-0.235563144] yes=17,no=18,missing=17
				17:leaf=0.135957286
				18:leaf=-0.0488395654
			10:[f13<0.025004914] yes=19,no=20,missing=19
				19:[f13<-15.9456425] yes=31,no=32,missing=31
					31:leaf=-0.0464978553
					32:leaf=0.147736624
				20:[f5<0.312515169] yes=33,no=34,missing=33
					33:[f30<-3328.93286] yes=43,no=44,missing=43
						43:leaf=-0.0504412055
						44:leaf=0.143302336
					34:leaf=-0.0531428121
	2:[f46<0.0382062644] yes=5,no=6,missing=5
		5:[f11<4.87195206] yes=11,no=12,missing=11
			11:[f30<-38.2413864] yes=21,no=22,missing=21
				21:leaf=-0.0520940796
				22:[f14<83712.5] yes=35,no=36,missing=35
					35:leaf=-0.0518282615
					36:[f14<201935] yes=45,no=46,missing=45
						45:leaf=0.140284881
						46:leaf=-0.0450104885
			12:[f15<-0.0680460632] yes=23,no=24,missing=23
				23:leaf=-0.0528869517
				24:leaf=0.0168502908
		6:[f4<0.0625680387] yes=13,no=14,missing=13
			13:[f14<8021.5] yes=25,no=26,missing=25
				25:[f30<-26.3849754] yes=37,no=38,missing=37
					37:leaf=0.0481518172
					38:leaf=0.146542296
				26:leaf=0.0121212397
			14:[f73<13.5] yes=27,no=28,missing=27
				27:leaf=-0.0531037226
				28:[f12<0.0250956155] yes=39,no=40,missing=39
					39:leaf=0.121942542
					40:leaf=-0.0470431931
booster[70]:
0:[f14<0.5] yes=1,no=2,missing=1
	1:leaf=0.168533742
	2:leaf=-0.053143926
booster[71]:
0:[f45<4034.65112] yes=1,no=2,missing=1
	1:leaf=-0.0531440079
	2:[f14<2463] yes=3,no=4,missing=3
		3:leaf=-0.0397384576
		4:leaf=0.167107671
booster[72]:
0:[f30<-28.7718067] yes=1,no=2,missing=1
	1:[f13<3.2696321] yes=3,no=4,missing=3
		3:[f28<-0.345266461] yes=7,no=8,missing=7
			7:[f84<11.5] yes=15,no=16,missing=15
				15:[f32<0.100984745] yes=21,no=22,missing=21
					21:leaf=-0.0512392223
					22:leaf=0.022684969
				16:[f30<-693.031921] yes=23,no=24,missing=23
					23:leaf=-0.038903743
					24:leaf=0.0711899474
			8:leaf=-0.0520696826
		4:[f27<0.0564303994] yes=9,no=10,missing=9
			9:leaf=0.116102174
			10:leaf=-0.0470128469
	2:[f12<0.0250050202] yes=5,no=6,missing=5
		5:[f3<8.1474781] yes=11,no=12,missing=11
			11:leaf=-0.0528428964
			12:leaf=0.0152418064
		6:[f4<0.0625005662] yes=13,no=14,missing=13
			13:[f24<0.256055385] yes=17,no=18,missing=17
				17:[f40<0.845643044] yes=25,no=26,missing=25
					25:leaf=0.0715101883
					26:leaf=-0.0381705426
				18:[f51<12] yes=27,no=28,missing=27
					27:leaf=-0.0542163216
					28:leaf=0.0144351441
			14:[f91<13.5] yes=19,no=20,missing=19
				19:[f49<8.5] yes=29,no=30,missing=29
					29:[f61<1.5] yes=33,no=34,missing=33
						33:leaf=0.0434539877
						34:leaf=0.124287799
					30:[f70<8] yes=35,no=36,missing=35
						35:leaf=0.113679372
						36:leaf=0.0139846532
				20:[f10<16.9834213] yes=31,no=32,missing=31
					31:leaf=-0.051020693
					32:[f51<13.5] yes=37,no=38,missing=37
						37:leaf=0.122927368
						38:leaf=-0.0498203486
booster[73]:
0:[f30<-1821.09692] yes=1,no=2,missing=1
	1:[f46<0.0490979105] yes=3,no=4,missing=3
		3:[f10<-996.029175] yes=7,no=8,missing=7
			7:leaf=-0.0440506712
			8:[f9<-947.677734] yes=13,no=14,missing=13
				13:leaf=0.0089287851
				14:leaf=0.125781253
		4:[f15<-0.0622849464] yes=9,no=10,missing=9
			9:leaf=-0.0525909849
			10:leaf=0.085957557
	2:[f11<-54.1500969] yes=5,no=6,missing=5
		5:leaf=0.144551367
		6:[f10<-64.4524765] yes=11,no=12,missing=11
			11:leaf=0.133984208
			12:[f11<213.33252] yes=15,no=16,missing=15
				15:[f9<-61.3462982] yes=17,no=18,missing=17
					17:leaf=0.131634146
					18:[f41<67.2094116] yes=19,no=20,missing=19
						19:leaf=-0.0523593612
						20:leaf=-0.00657967106
				16:leaf=0.127454087
booster[74]:
0:[f91<3.5] yes=1,no=2,missing=1
	1:[f61<3.5] yes=3,no=4,missing=3
		3:[f30<-25.8180161] yes=7,no=8,missing=7
			7:leaf=-0.0515003763
			8:[f70<4.5] yes=15,no=16,missing=15
				15:[f90<10] yes=25,no=26,missing=25
					25:[f14<489.5] yes=43,no=44,missing=43
						43:leaf=0.141537771
						44:leaf=-0.0327289961
					26:[f14<217844.5] yes=45,no=46,missing=45
						45:leaf=0.12848708
						46:leaf=-0.0527194031
				16:leaf=-0.0513154082
		4:[f71<12.5] yes=9,no=10,missing=9
			9:leaf=-0.0528439879
			10:[f46<0.0329906233] yes=17,no=18,missing=17
				17:[f14<160308.5] yes=27,no=28,missing=27
					27:leaf=-0.0409645773
					28:leaf=0.151365325
				18:[f38<-0.268465608] yes=29,no=30,missing=29
					29:leaf=0.0222697537
					30:leaf=-0.0504651554
	2:[f91<12.5] yes=5,no=6,missing=5
		5:[f91<10.5] yes=11,no=12,missing=11
			11:[f61<1.5] yes=19,no=20,missing=19
				19:[f58<1.5] yes=31,no=32,missing=31
					31:[f1<1.41182745] yes=47,no=48,missing=47
						47:leaf=0.392317355
						48:leaf=0.131185129
					32:leaf=-0.0525971465
				20:[f53<0.5] yes=33,no=34,missing=33
					33:[f85<5.5] yes=49,no=50,missing=49
						49:leaf=0.400977701
						50:leaf=-0.0531332269
					34:[f28<0.0378802121] yes=51,no=52,missing=51
						51:leaf=-0.0535698235
						52:leaf=0.362566322
			12:[f22<-0.192053899] yes=21,no=22,missing=21
				21:[f64<1.5] yes=35,no=36,missing=35
					35:leaf=0.399792582
					36:leaf=-0.0534024201
				22:[f58<3.5] yes=37,no=38,missing=37
					37:leaf=-0.0531930216
					38:[f59<12.5] yes=53,no=54,missing=53
						53:leaf=0.134833962
						54:leaf=0.555776417
		6:[f51<13.5] yes=13,no=14,missing=13
			13:[f63<13.5] yes=23,no=24,missing=23
				23:[f57<10.5] yes=39,no=40,missing=39
					39:[f18<0.0159957558] yes=55,no=56,missing=55
						55:leaf=-0.0299529377
						56:leaf=-0.0516179465
					40:[f84<12.5] yes=57,no=58,missing=57
						57:leaf=-0.0417570733
						58:leaf=0.271070093
				24:[f14<4885.5] yes=41,no=42,missing=41
					41:leaf=-0.0497092381
					42:leaf=0.185818717
			14:leaf=0.124643765
booster[75]:
0:[f0<1.81254864] yes=1,no=2,missing=1
	1:[f0<-0.940155149] yes=3,no=4,missing=3
		3:leaf=-0.0458182581
		4:leaf=0.12564373
	2:[f6<1.334512] yes=5,no=6,missing=5
		5:[f6<-4.86157894] yes=7,no=8,missing=7
			7:leaf=-0.0462531559
			8:leaf=0.125539795
		6:[f11<6.29667556e-05] yes=9,no=10,missing=9
			9:[f11<-0.000118131502] yes=11,no=12,missing=11
				11:leaf=-0.0524000935
				12:leaf=0.132726207
			10:[f2<1.54752815] yes=13,no=14,missing=13
				13:[f2<-16.9859924] yes=15,no=16,missing=15
					15:leaf=-0.0462139733
					16:leaf=0.125097513
				14:[f10<0.0848113596] yes=17,no=18,missing=17
					17:[f10<-0.00758330105] yes=19,no=20,missing=19
						19:leaf=-0.0526861027
						20:leaf=0.128855765
					18:[f4<0.0625005662] yes=21,no=22,missing=21
						21:leaf=0.0108016022
						22:leaf=-0.0525143407
booster[76]:
0:[f30<-659.755127] yes=1,no=2,missing=1
	1:[f30<-1770.68726] yes=3,no=4,missing=3
		3:leaf=-0.0527067743
		4:[f14<186293] yes=5,no=6,missing=5
			5:[f25<0.175380886] yes=7,no=8,missing=7
				7:[f11<7.84851837] yes=9,no=10,missing=9
					9:leaf=-0.0469073765
					10:[f15<-0.11734888] yes=11,no=12,missing=11
						11:leaf=-0.0416567028
						12:leaf=0.125494227
				8:leaf=-0.0498772003
			6:leaf=-0.0516728833
	2:leaf=-0.0529254042
booster[77]:
0:[f64<8.5] yes=1,no=2,missing=1
	1:[f58<12.5] yes=3,no=4,missing=3
		3:[f14<84.5] yes=7,no=8,missing=7
			7:[f88<0.5] yes=15,no=16,missing=15
				15:[f14<44.5] yes=29,no=30,missing=29
					29:leaf=-0.0502310395
					30:leaf=0.180887893
				16:leaf=-0.0526678674
			8:[f9<195.373016] yes=17,no=18,missing=17
				17:[f42<192.332031] yes=31,no=32,missing=31
					31:[f25<0.0852217078] yes=45,no=46,missing=45
						45:leaf=-0.0288123172
						46:leaf=-0.052785892
					32:[f24<0.264885068] yes=47,no=48,missing=47
						47:leaf=0.0226518381
						48:leaf=-0.0385420993
				18:[f9<303.744385] yes=33,no=34,missing=33
					33:leaf=0.0692760646
					34:leaf=-0.0419262685
		4:[f59<12.5] yes=9,no=10,missing=9
			9:leaf=-0.0527326278
			10:[f14<158080.5] yes=19,no=20,missing=19
				19:leaf=-0.0362166055
				20:leaf=0.152913228
	2:[f91<11.5] yes=5,no=6,missing=5
		5:[f45<5.21964694e-10] yes=11,no=12,missing=11
			11:[f76<9.5] yes=21,no=22,missing=21
				21:[f50<2.5] yes=35,no=36,missing=35
					35:[f46<0.0399817824] yes=49,no=50,missing=49
						49:leaf=0.195457503
						50:leaf=-0.0429151058
					36:[f14<231] yes=51,no=52,missing=51
						51:leaf=0.0639924631
						52:leaf=-0.0532996245
				22:leaf=-0.0535053089
			12:[f55<7.5] yes=23,no=24,missing=23
				23:leaf=-0.0527659543
				24:[f30<-144.570587] yes=37,no=38,missing=37
					37:leaf=-0.0526941121
					38:[f54<0.5] yes=53,no=54,missing=53
						53:leaf=0.268997759
						54:leaf=0.13030073
		6:[f55<1.5] yes=13,no=14,missing=13
			13:[f75<1.5] yes=25,no=26,missing=25
				25:[f18<0.0310181379] yes=39,no=40,missing=39
					39:[f14<59320.5] yes=55,no=56,missing=55
						55:leaf=-0.0489782058
						56:leaf=0.177375019
					40:leaf=-0.0513018444
				26:leaf=-0.0523448251
			14:[f50<0.5] yes=27,no=28,missing=27
				27:[f48<10] yes=41,no=42,missing=41
					41:leaf=-0.0517787002
					42:[f14<139186.5] yes=57,no=58,missing=57
						57:leaf=-0.0457175337
						58:leaf=0.229389146
				28:[f40<-23.7859936] yes=43,no=44,missing=43
					43:[f86<6.5] yes=59,no=60,missing=59
						59:leaf=0.02209392
						60:leaf=-0.041071739
					44:leaf=-0.0528815761
booster[78]:
0:[f46<0.0495404303] yes=1,no=2,missing=1
	1:[f10<-996.029175] yes=3,no=4,missing=3
		3:leaf=0.125933483
		4:[f9<-977.594482] yes=7,no=8,missing=7
			7:leaf=0.124764159
			8:leaf=-0.0529211834
	2:[f30<-25040.4902] yes=5,no=6,missing=5
		5:[f30<-59584.8906] yes=9,no=10,missing=9
			9:leaf=0.0111881746
			10:leaf=0.125401959
		6:leaf=-0.0446430556
booster[79]:
0:[f30<-25.3063278] yes=1,no=2,missing=1
	1:[f30<-1471.69385] yes=3,no=4,missing=3
		3:[f61<12.5] yes=7,no=8,missing=7
			7:[f50<0.5] yes=15,no=16,missing=15
				15:[f86<0.5] yes=27,no=28,missing=27
					27:[f3<8.01681137] yes=37,no=38,missing=37
						37:leaf=0.0165951438
						38:leaf=0.128934667
					28:leaf=-0.0493349507
				16:leaf=-0.0527490936
			8:[f28<0.0311360061] yes=17,no=18,missing=17
				17:leaf=-0.0459897444
				18:leaf=0.122319601
		4:[f11<14.8902283] yes=9,no=10,missing=9
			9:[f46<0.0314765126] yes=19,no=20,missing=19
				19:[f14<130935.5] yes=29,no=30,missing=29
					29:leaf=-0.0529123358
					30:[f66<11] yes=39,no=40,missing=39
						39:leaf=0.128144801
						40:leaf=-0.0455664285
				20:[f30<-26.8734283] yes=31,no=32,missing=31
					31:[f2<1.57502258] yes=41,no=42,missing=41
						41:leaf=-0.04926176
						42:leaf=0.124019563
					32:[f11<8.91522694] yes=43,no=44,missing=43
						43:leaf=-0.0268897749
						44:leaf=0.140862346
			10:[f10<155.889343] yes=21,no=22,missing=21
				21:leaf=-0.052598834
				22:leaf=0.0636289865
	2:[f47<13.5] yes=5,no=6,missing=5
		5:[f25<0.179664493] yes=11,no=12,missing=11
			11:[f55<13.5] yes=23,no=24,missing=23
				23:[f10<36.0077057] yes=33,no=34,missing=33
					33:[f9<31.1523724] yes=45,no=46,missing=45
						45:leaf=-0.0490250252
						46:leaf=0.23229818
					34:leaf=0.147847965
				24:[f16<0.0485968441] yes=35,no=36,missing=35
					35:leaf=-0.0502824746
					36:[f14<120] yes=47,no=48,missing=47
						47:leaf=-0.0569895916
						48:leaf=0.158778578
			12:[f29<0.121650122] yes=25,no=26,missing=25
				25:leaf=0.133034214
				26:leaf=0.0133615974
		6:[f11<13.0782738] yes=13,no=14,missing=13
			13:leaf=0.152620226
			14:leaf=-0.0498656742
booster[80]:
0:[f61<11.5] yes=1,no=2,missing=1
	1:[f4<1.43747425] yes=3,no=4,missing=3
		3:[f19<-0.164987653] yes=7,no=8,missing=7
			7:[f52<0.5] yes=15,no=16,missing=15
				15:[f13<1.15140533] yes=23,no=24,missing=23
					23:leaf=-0.0326975547
					24:leaf=0.121943973
				16:leaf=-0.0524193533
			8:leaf=-0.0529062152
		4:[f4<9.7085619] yes=9,no=10,missing=9
			9:leaf=0.119245507
			10:leaf=-0.0441491567
	2:[f12<1.99837136] yes=5,no=6,missing=5
		5:[f28<-0.116394565] yes=11,no=12,missing=11
			11:[f13<1.17227447] yes=17,no=18,missing=17
				17:leaf=-0.0477431417
				18:[f19<-0.164830789] yes=25,no=26,missing=25
					25:leaf=0.125057578
					26:leaf=0.041867245
			12:[f4<1.43725717] yes=19,no=20,missing=19
				19:leaf=-0.0528646894
				20:leaf=0.124634624
		6:[f27<0.0986190438] yes=13,no=14,missing=13
			13:leaf=-0.0522609726
			14:[f55<3] yes=21,no=22,missing=21
				21:leaf=-0.0502035581
				22:[f86<11.5] yes=27,no=28,missing=27
					27:[f14<203180.5] yes=29,no=30,missing=29
						29:leaf=0.128498018
						30:leaf=-0.0414595157
					28:leaf=-0.047230728
booster[81]:
0:[f61<11.5] yes=1,no=2,missing=1
	1:[f4<0.0625005662] yes=3,no=4,missing=3
		3:[f60<9.5] yes=7,no=8,missing=7
			7:leaf=-0.0508088842
			8:[f4<-35.5982552] yes=15,no=16,missing=15
				15:leaf=-0.0323202498
				16:[f5<1.35978651] yes=29,no=30,missing=29
					29:[f32<-0.0881488323] yes=41,no=42,missing=41
						41:leaf=0.0440135263
						42:leaf=0.129208371
					30:leaf=0.0431003533
		4:[f12<0.0250050202] yes=9,no=10,missing=9
			9:[f22<-0.235563144] yes=17,no=18,missing=17
				17:leaf=0.121088021
				18:leaf=-0.0484273024
			10:[f13<0.025004914] yes=19,no=20,missing=19
				19:[f13<-15.9456425] yes=31,no=32,missing=31
					31:leaf=-0.0459412262
					32:leaf=0.129949391
				20:[f5<0.312515169] yes=33,no=34,missing=33
					33:[f30<-3328.93286] yes=43,no=44,missing=43
						43:leaf=-0.0500498377
						44:leaf=0.126970962
					34:leaf=-0.052917894
	2:[f46<0.0382062644] yes=5,no=6,missing=5
		5:[f11<4.87195206] yes=11,no=12,missing=11
			11:[f30<-38.2413864] yes=21,no=22,missing=21
				21:leaf=-0.0517939404
				22:[f14<83712.5] yes=35,no=36,missing=35
					35:leaf=-0.0515280962
					36:[f91<13.5] yes=45,no=46,missing=45
						45:leaf=0.124282219
						46:leaf=-0.0434185974
			12:[f21<0.291852266] yes=23,no=24,missing=23
				23:leaf=0.0173051283
				24:leaf=-0.0526468158
		6:[f4<0.0625680387] yes=13,no=14,missing=13
			13:[f14<8021.5] yes=25,no=26,missing=25
				25:[f21<0.298410326] yes=37,no=38,missing=37
					37:leaf=0.0429420471
					38:leaf=0.129897416
				26:leaf=0.0112289144
			14:[f73<13.5] yes=27,no=28,missing=27
				27:leaf=-0.0528807752
				28:[f12<0.0250956155] yes=39,no=40,missing=39
					39:leaf=0.110155754
					40:leaf=-0.0466697849
booster[82]:
0:[f14<0.5] yes=1,no=2,missing=1
	1:leaf=0.152283102
	2:leaf=-0.0529197454
booster[83]:
0:[f45<4034.65112] yes=1,no=2,missing=1
	1:leaf=-0.0529198349
	2:[f14<2463] yes=3,no=4,missing=3
		3:leaf=-0.0390420817
		4:leaf=0.151020885
booster[84]:
0:[f30<-28.7718067] yes=1,no=2,missing=1
	1:[f13<3.2696321] yes=3,no=4,missing=3
		3:[f28<-0.345266461] yes=7,no=8,missing=7
			7:[f84<11.5] yes=15,no=16,missing=15
				15:[f32<0.100984745] yes=21,no=22,missing=21
					21:leaf=-0.0509168766
					22:leaf=0.022838179
				16:[f38<-0.00814996846] yes=23,no=24,missing=23
					23:leaf=-0.038448967
					24:leaf=0.0720978528
			8:leaf=-0.0517970137
		4:[f27<0.0563766956] yes=9,no=10,missing=9
			9:leaf=0.115417592
			10:leaf=-0.046566207
	2:[f12<0.0250050202] yes=5,no=6,missing=5
		5:[f3<8.1474781] yes=11,no=12,missing=11
			11:leaf=-0.0525969379
			12:leaf=0.0156171042
		6:[f4<0.0625005662] yes=13,no=14,missing=13
			13:[f24<0.256055385] yes=17,no=18,missing=17
				17:[f9<28.4192085] yes=25,no=26,missing=25
					25:leaf=0.0699755475
					26:leaf=-0.038286753
				18:[f51<12] yes=27,no=28,missing=27
					27:leaf=-0.0538519137
					28:leaf=0.0144200725
			14:[f91<13.5] yes=19,no=20,missing=19
				19:[f49<8.5] yes=29,no=30,missing=29
					29:[f61<1.5] yes=33,no=34,missing=33
						33:leaf=0.03994992
						34:leaf=0.111193061
					30:[f70<8] yes=35,no=36,missing=35
						35:leaf=0.10118898
						36:leaf=0.013578603
				20:[f63<13.5] yes=31,no=32,missing=31
					31:[f47<13.5] yes=37,no=38,missing=37
						37:leaf=0.111041777
						38:leaf=0.0281639192
					32:[f14<4885.5] yes=39,no=40,missing=39
						39:leaf=0.111967973
						40:leaf=-0.0714883879
booster[85]:
0:[f30<-1821.09692] yes=1,no=2,missing=1
	1:[f46<0.0490979105] yes=3,no=4,missing=3
		3:[f10<-996.029175] yes=7,no=8,missing=7
			7:leaf=-0.0434252284
			8:[f9<-947.677734] yes=13,no=14,missing=13
				13:leaf=0.00839766394
				14:leaf=0.113552801
		4:[f15<-0.0622849464] yes=9,no=10,missing=9
			9:leaf=-0.0523551293
			10:leaf=0.0804595873
	2:[f11<-54.1500969] yes=5,no=6,missing=5
		5:leaf=0.132406577
		6:[f10<-64.4524765] yes=11,no=12,missing=11
			11:leaf=0.121908836
			12:[f11<213.33252] yes=15,no=16,missing=15
				15:[f9<-61.3462982] yes=17,no=18,missing=17
					17:leaf=0.120662451
					18:[f41<67.2094116] yes=19,no=20,missing=19
						19:leaf=-0.052108068
						20:leaf=-0.00560888974
				16:leaf=0.117201224
booster[86]:
0:[f91<3.5] yes=1,no=2,missing=1
	1:[f61<3.5] yes=3,no=4,missing=3
		3:[f30<-25.8180161] yes=7,no=8,missing=7
			7:leaf=-0.0511910729
			8:[f70<4.5] yes=15,no=16,missing=15
				15:[f54<12.5] yes=25,no=26,missing=25
					25:[f90<10] yes=43,no=44,missing=43
						43:leaf=0.0551646724
						44:leaf=0.116520047
					26:leaf=-0.0562137067
				16:leaf=-0.051108826
		4:[f71<12.5] yes=9,no=10,missing=9
			9:leaf=-0.052625563
			10:[f46<0.0329906233] yes=17,no=18,missing=17
				17:[f14<160308.5] yes=27,no=28,missing=27
					27:leaf=-0.0403012894
					28:leaf=0.138892561
				18:[f40<-3.72877121] yes=29,no=30,missing=29
					29:leaf=0.0225794576
					30:leaf=-0.0501529388
	2:[f91<12.5] yes=5,no=6,missing=5
		5:[f91<10.5] yes=11,no=12,missing=11
			11:[f61<1.5] yes=19,no=20,missing=19
				19:[f58<1.5] yes=31,no=32,missing=31
					31:[f1<1.41182745] yes=45,no=46,missing=45
						45:leaf=0.275148481
						46:leaf=0.118732117
					32:leaf=-0.0523910038
				20:[f53<0.5] yes=33,no=34,missing=33
					33:[f85<5.5] yes=47,no=48,missing=47
						47:leaf=0.281328291
						48:leaf=-0.0528582595
					34:[f28<0.0378802121] yes=49,no=50,missing=49
						49:leaf=-0.0533094518
						50:leaf=0.260948062
			12:[f22<-0.192053899] yes=21,no=22,missing=21
				21:[f64<1.5] yes=35,no=36,missing=35
					35:leaf=0.280038536
					36:leaf=-0.0531558469
				22:[f58<3.5] yes=37,no=38,missing=37
					37:leaf=-0.0528938137
					38:[f86<6.5] yes=51,no=52,missing=51
						51:leaf=0.190040797
						52:leaf=0.0809757411
		6:[f51<13.5] yes=13,no=14,missing=13
			13:[f63<13.5] yes=23,no=24,missing=23
				23:[f65<0.5] yes=39,no=40,missing=39
					39:[f77<1] yes=53,no=54,missing=53
						53:leaf=0.408712536
						54:leaf=-0.0345197245
					40:[f80<12.5] yes=55,no=56,missing=55
						55:leaf=-0.050992161
						56:leaf=-0.0190184936
				24:[f14<4885.5] yes=41,no=42,missing=41
					41:leaf=-0.049189847
					42:leaf=0.165729567
			14:leaf=0.112425052
booster[87]:
0:[f0<1.81254864] yes=1,no=2,missing=1
	1:[f0<-0.940155149] yes=3,no=4,missing=3
		3:leaf=-0.0452326201
		4:leaf=0.113361537
	2:[f6<1.334512] yes=5,no=6,missing=5
		5:[f6<-4.86157894] yes=7,no=8,missing=7
			7:leaf=-0.0456824265
			8:leaf=0.11317762
		6:[f11<6.29667556e-05] yes=9,no=10,missing=9
			9:[f11<-0.000118131502] yes=11,no=12,missing=11
				11:leaf=-0.05215187
				12:leaf=0.121100627
			10:[f2<1.54752815] yes=13,no=14,missing=13
				13:[f2<-16.9859924] yes=15,no=16,missing=15
					15:leaf=-0.04562537
					16:leaf=0.112841241
				14:[f10<0.0848113596] yes=17,no=18,missing=17
					17:[f10<-0.00758330105] yes=19,no=20,missing=19
						19:leaf=-0.052456487
						20:leaf=0.115708344
					18:[f4<0.0625005662] yes=21,no=22,missing=21
						21:leaf=0.011101204
						22:leaf=-0.0522728376
booster[88]:
0:[f30<-659.755127] yes=1,no=2,missing=1
	1:[f30<-1770.68726] yes=3,no=4,missing=3
		3:leaf=-0.052478116
		4:[f14<186293] yes=5,no=6,missing=5
			5:[f25<0.175380886] yes=7,no=8,missing=7
				7:[f11<7.84851837] yes=9,no=10,missing=9
					9:leaf=-0.0464485288
					10:[f15<-0.11734888] yes=11,no=12,missing=11
						11:leaf=-0.0409989432
						12:leaf=0.113054693
				8:leaf=-0.0494768433
			6:leaf=-0.0513900779
	2:leaf=-0.0527133755
booster[89]:
0:[f64<8.5] yes=1,no=2,missing=1
	1:[f58<12.5] yes=3,no=4,missing=3
		3:[f14<84.5] yes=7,no=8,missing=7
			7:[f88<0.5] yes=15,no=16,missing=15
				15:[f14<44.5] yes=29,no=30,missing=29
					29:leaf=-0.049549412
					30:leaf=0.161143363
				16:leaf=-0.052442681
			8:[f9<195.373016] yes=17,no=18,missing=17
				17:[f42<192.332031] yes=31,no=32,missing=31
					31:[f25<0.0852217078] yes=45,no=46,missing=45
						45:leaf=-0.0277178865
						46:leaf=-0.052562084
					32:[f53<4.5] yes=47,no=48,missing=47
						47:leaf=0.0232881457
						48:leaf=-0.0379681587
				18:[f80<2] yes=33,no=34,missing=33
					33:leaf=0.0657991916
					34:leaf=-0.0411839932
		4:[f59<12.5] yes=9,no=10,missing=9
			9:leaf=-0.0525034331
			10:[f14<158080.5] yes=19,no=20,missing=19
				19:leaf=-0.0354658253
				20:leaf=0.140484676
	2:[f91<11.5] yes=5,no=6,missing=5
		5:[f45<5.21964694e-10] yes=11,no=12,missing=11
			11:[f76<9.5] yes=21,no=22,missing=21
				21:[f50<2.5] yes=35,no=36,missing=35
					35:[f61<6.5] yes=49,no=50,missing=49
						49:leaf=-0.0504783466
						50:leaf=0.162280366
					36:[f14<231] yes=51,no=52,missing=51
						51:leaf=0.0604421571
						52:leaf=-0.0530579798
				22:leaf=-0.0532926098
			12:[f55<7.5] yes=23,no=24,missing=23
				23:leaf=-0.0525223501
				24:[f79<12.5] yes=37,no=38,missing=37
					37:[f14<199173.5] yes=53,no=54,missing=53
						53:leaf=0.121415034
						54:leaf=-0.0616666935
					38:leaf=-0.0523980334
		6:[f55<1.5] yes=13,no=14,missing=13
			13:[f75<1.5] yes=25,no=26,missing=25
				25:[f46<0.037611343] yes=39,no=40,missing=39
					39:[f14<59320.5] yes=55,no=56,missing=55
						55:leaf=-0.0484048203
						56:leaf=0.17213361
					40:[f33<0.118903846] yes=57,no=58,missing=57
						57:leaf=-0.051360447
						58:leaf=0.120381251
				26:leaf=-0.0520847328
			14:[f50<0.5] yes=27,no=28,missing=27
				27:[f48<10] yes=41,no=42,missing=41
					41:leaf=-0.0515166
					42:[f14<139186.5] yes=59,no=60,missing=59
						59:leaf=-0.0451440699
						60:leaf=0.198124871
				28:[f40<-23.7859936] yes=43,no=44,missing=43
					43:[f57<6.5] yes=61,no=62,missing=61
						61:leaf=-0.0405019633
						62:leaf=0.0226655733
					44:leaf=-0.0526664667
booster[90]:
0:[f46<0.0495404303] yes=1,no=2,missing=1
	1:[f10<-996.029175] yes=3,no=4,missing=3
		3:leaf=0.113402925
		4:[f9<-977.594482] yes=7,no=8,missing=7
			7:leaf=0.112916231
			8:leaf=-0.0527089722
	2:[f30<-25040.4902] yes=5,no=6,missing=5
		5:[f14<138568.5] yes=9,no=10,missing=9
			9:leaf=0.11313168
			10:leaf=0.00832863897
		6:leaf=-0.0440455936
booster[91]:
0:[f30<-25.0225849] yes=1,no=2,missing=1
	1:[f30<-1471.69385] yes=3,no=4,missing=3
		3:[f61<12.5] yes=7,no=8,missing=7
			7:[f50<0.5] yes=15,no=16,missing=15
				15:[f48<12.5] yes=27,no=28,missing=27
					27:leaf=-0.0490015559
					28:[f46<0.0304544307] yes=39,no=40,missing=39
						39:leaf=0.116152219
						40:leaf=0.0152922692
				16:leaf=-0.0525266305
			8:[f28<0.0311360061] yes=17,no=18,missing=17
				17:leaf=-0.0454213433
				18:leaf=0.110446535
		4:[f11<14.8902283] yes=9,no=10,missing=9
			9:[f46<0.0305145495] yes=19,no=20,missing=19
				19:[f14<135250.5] yes=29,no=30,missing=29
					29:leaf=-0.052122809
					30:leaf=0.111751035
				20:[f20<0.0718135834] yes=31,no=32,missing=31
					31:[f79<13.5] yes=41,no=42,missing=41
						41:leaf=0.108035959
						42:leaf=-0.0506481715
					32:[f10<23.7655659] yes=43,no=44,missing=43
						43:leaf=0.130390018
						44:leaf=-0.0528966561
			10:[f10<155.889343] yes=21,no=22,missing=21
				21:leaf=-0.052369114
				22:leaf=0.0587333106
	2:[f47<13.5] yes=5,no=6,missing=5
		5:[f22<-0.0913499296] yes=11,no=12,missing=11
			11:[f55<13.5] yes=23,no=24,missing=23
				23:[f10<36.0077057] yes=33,no=34,missing=33
					33:[f60<12.5] yes=45,no=46,missing=45
						45:leaf=-0.0507041588
						46:leaf=-0.0270679891
					34:leaf=0.134156868
				24:[f16<0.0485968441] yes=35,no=36,missing=35
					35:leaf=-0.0498868339
					36:[f14<120] yes=47,no=48,missing=47
						47:leaf=-0.0560616031
						48:leaf=0.142234042
			12:[f14<571.5] yes=25,no=26,missing=25
				25:leaf=-0.051702138
				26:[f10<17.2419643] yes=37,no=38,missing=37
					37:leaf=0.119445398
					38:leaf=0.710194111
		6:[f11<13.0782738] yes=13,no=14,missing=13
			13:leaf=0.140236422
			14:leaf=-0.0494684875
booster[92]:
0:[f61<11.5] yes=1,no=2,missing=1
	1:[f4<1.43747425] yes=3,no=4,missing=3
		3:[f19<-0.164987653] yes=7,no=8,missing=7
			7:[f52<0.5] yes=15,no=16,missing=15
				15:[f27<0.0566335618] yes=21,no=22,missing=21
					21:leaf=-0.0341304243
					22:leaf=0.109428011
				16:leaf=-0.0521743186
			8:leaf=-0.0526921749
		4:[f4<9.7085619] yes=9,no=10,missing=9
			9:leaf=0.10810665
			10:leaf=-0.0434876308
	2:[f12<1.99837136] yes=5,no=6,missing=5
		5:[f30<-47.1131134] yes=11,no=12,missing=11
			11:[f30<-75.7185211] yes=17,no=18,missing=17
				17:leaf=-0.0522330366
				18:[f24<0.260564834] yes=23,no=24,missing=23
					23:leaf=0.113232516
					24:leaf=0.038499102
			12:leaf=-0.0526508205
		6:[f27<0.0986190438] yes=13,no=14,missing=13
			13:leaf=-0.0520154946
			14:[f55<3] yes=19,no=20,missing=19
				19:leaf=-0.0498333201
				20:[f86<11.5] yes=25,no=26,missing=25
					25:[f14<203180.5] yes=27,no=28,missing=27
						27:leaf=0.115987122
						28:leaf=-0.0414818935
					26:leaf=-0.0471431278
booster[93]:
0:[f61<11.5] yes=1,no=2,missing=1
	1:[f4<0.0625005662] yes=3,no=4,missing=3
		3:[f60<9.5] yes=7,no=8,missing=7
			7:leaf=-0.0506655462
			8:[f4<-35.5982552] yes=15,no=16,missing=15
				15:leaf=-0.0314615257
				16:[f5<1.35978651] yes=25,no=26,missing=25
					25:leaf=0.115651861
					26:leaf=0.0401511043
		4:[f12<0.0250050202] yes=9,no=10,missing=9
			9:[f22<-0.235563144] yes=17,no=18,missing=17
				17:leaf=0.109579757
				18:leaf=-0.0480141155
			10:[f13<0.025004914] yes=19,no=20,missing=19
				19:[f13<-15.9456425] yes=27,no=28,missing=27
					27:leaf=-0.0453704782
					28:leaf=0.119915448
				20:[f5<0.312515169] yes=29,no=30,missing=29
					29:[f30<-3328.93286] yes=33,no=34,missing=33
						33:leaf=-0.0496530719
						34:leaf=0.117811263
					30:leaf=-0.0527045205
	2:[f46<0.0390123278] yes=5,no=6,missing=5
		5:[f91<13.5] yes=11,no=12,missing=11
			11:[f14<201935] yes=21,no=22,missing=21
				21:[f30<-38.2413864] yes=31,no=32,missing=31
					31:leaf=-0.0516672023
					32:[f49<3] yes=35,no=36,missing=35
						35:leaf=-0.0513535254
						36:leaf=0.109418117
				22:leaf=-0.052328404
			12:leaf=-0.0524377003
		6:[f73<13.5] yes=13,no=14,missing=13
			13:leaf=-0.0526435636
			14:[f12<0.0250956155] yes=23,no=24,missing=23
				23:leaf=0.100367822
				24:leaf=-0.0466286056
booster[94]:
0:[f14<0.5] yes=1,no=2,missing=1
	1:leaf=0.139714375
	2:leaf=-0.05270743
booster[95]:
0:[f45<4034.65112] yes=1,no=2,missing=1
	1:leaf=-0.0527075194
	2:[f14<2463] yes=3,no=4,missing=3
		3:leaf=-0.0383007005
		4:leaf=0.138645634
booster[96]:
0:[f30<-28.7718067] yes=1,no=2,missing=1
	1:[f13<3.2696321] yes=3,no=4,missing=3
		3:[f28<-0.345266461] yes=7,no=8,missing=7
			7:[f84<11.5] yes=15,no=16,missing=15
				15:[f10<34.9041443] yes=25,no=26,missing=25
					25:leaf=-0.0506075323
					26:leaf=0.0234817341
				16:[f30<-693.031921] yes=27,no=28,missing=27
					27:leaf=-0.0376933739
					28:leaf=0.0695040524
			8:leaf=-0.0515327416
		4:[f27<0.0561037362] yes=9,no=10,missing=9
			9:leaf=0.115966536
			10:leaf=-0.046147991
	2:[f27<0.146998525] yes=5,no=6,missing=5
		5:[f4<0.0625005662] yes=11,no=12,missing=11
			11:[f24<0.256055385] yes=17,no=18,missing=17
				17:[f31<-0.0612049103] yes=29,no=30,missing=29
					29:leaf=0.0685952157
					30:leaf=-0.0381943434
				18:[f51<12] yes=31,no=32,missing=31
					31:leaf=-0.0535130799
					32:leaf=0.014796759
			12:[f49<13.5] yes=19,no=20,missing=19
				19:[f13<0.0500101745] yes=33,no=34,missing=33
					33:[f14<91434] yes=45,no=46,missing=45
						45:leaf=-0.0534680784
						46:leaf=0.0193395484
					34:[f81<13.5] yes=47,no=48,missing=47
						47:leaf=0.0984431431
						48:leaf=0.0237255897
				20:[f14<18152.5] yes=35,no=36,missing=35
					35:leaf=-0.0549633317
					36:leaf=0.283356667
		6:[f55<10.5] yes=13,no=14,missing=13
			13:[f61<3.5] yes=21,no=22,missing=21
				21:[f81<3] yes=37,no=38,missing=37
					37:[f1<1.42195928] yes=49,no=50,missing=49
						49:leaf=0.0745872781
						50:leaf=0.197044298
					38:[f64<4] yes=51,no=52,missing=51
						51:leaf=-0.0558272488
						52:leaf=0.0694712326
				22:[f28<0.0378802121] yes=39,no=40,missing=39
					39:[f46<0.037641041] yes=53,no=54,missing=53
						53:leaf=-0.0308952518
						54:leaf=0.105229214
					40:[f14<209750.5] yes=55,no=56,missing=55
						55:leaf=0.109059416
						56:leaf=-0.0620845929
			14:[f12<2.00427079] yes=23,no=24,missing=23
				23:[f88<4.5] yes=41,no=42,missing=41
					41:leaf=0.108211629
					42:[f43<-0.156232655] yes=57,no=58,missing=57
						57:leaf=0.151770234
						58:leaf=-0.0483993106
				24:[f47<6.5] yes=43,no=44,missing=43
					43:leaf=0.345217556
					44:leaf=0.0993627012
booster[97]:
0:[f30<-1821.09692] yes=1,no=2,missing=1
	1:[f46<0.0490979105] yes=3,no=4,missing=3
		3:[f10<-996.029175] yes=7,no=8,missing=7
			7:leaf=-0.0427823327
			8:[f9<-947.677734] yes=13,no=14,missing=13
				13:leaf=0.00790353678
				14:leaf=0.103962652
		4:[f15<-0.0622849464] yes=9,no=10,missing=9
			9:leaf=-0.0521292947
			10:leaf=0.0759014636
	2:[f11<-54.1500969] yes=5,no=6,missing=5
		5:leaf=0.122802772
		6:[f10<-64.4524765] yes=11,no=12,missing=11
			11:leaf=0.11233139
			12:[f42<81.9370575] yes=15,no=16,missing=15
				15:[f9<-61.3462982] yes=17,no=18,missing=17
					17:leaf=0.111301281
					18:[f41<67.2094116] yes=21,no=22,missing=21
						21:leaf=-0.0519381724
						22:leaf=-0.00462532183
				16:[f11<51.8053665] yes=19,no=20,missing=19
					19:leaf=-0.0451391339
					20:[f7<0.913919806] yes=23,no=24,missing=23
						23:leaf=0.0167282801
						24:leaf=0.213635311
booster[98]:
0:[f91<3.5] yes=1,no=2,missing=1
	1:[f61<3.5] yes=3,no=4,missing=3
		3:[f30<-25.8180161] yes=7,no=8,missing=7
			7:leaf=-0.0508812442
			8:[f70<4.5] yes=15,no=16,missing=15
				15:[f71<12] yes=25,no=26,missing=25
					25:[f14<217844.5] yes=43,no=44,missing=43
						43:leaf=0.104870573
						44:leaf=-0.05404054
					26:[f14<119520] yes=45,no=46,missing=45
						45:leaf=0.191036627
						46:leaf=-0.0593402646
				16:leaf=-0.0509053469
		4:[f71<12.5] yes=9,no=10,missing=9
			9:leaf=-0.0524188392
			10:[f46<0.0329906233] yes=17,no=18,missing=17
				17:[f14<160308.5] yes=27,no=28,missing=27
					27:leaf=-0.0396214761
					28:leaf=0.128969595
				18:[f40<-3.72877121] yes=29,no=30,missing=29
					29:leaf=0.0225289091
					30:leaf=-0.0498106964
	2:[f91<12.5] yes=5,no=6,missing=5
		5:[f91<10.5] yes=11,no=12,missing=11
			11:[f61<1.5] yes=19,no=20,missing=19
				19:[f58<1.5] yes=31,no=32,missing=31
					31:[f1<1.41182745] yes=47,no=48,missing=47
						47:leaf=0.216118455
						48:leaf=0.108945742
					32:leaf=-0.052189406
				20:[f53<0.5] yes=33,no=34,missing=33
					33:[f85<5.5] yes=49,no=50,missing=49
						49:leaf=0.221597821
						50:leaf=-0.0525984876
					34:[f28<0.0378802121] yes=51,no=52,missing=51
						51:leaf=-0.0530637912
						52:leaf=0.205865771
			12:[f22<-0.192053899] yes=21,no=22,missing=21
				21:[f64<1.5] yes=35,no=36,missing=35
					35:leaf=0.219168857
					36:leaf=-0.0529302843
				22:[f55<3.5] yes=37,no=38,missing=37
					37:leaf=-0.053231746
					38:[f87<8.5] yes=53,no=54,missing=53
						53:leaf=0.191940978
						54:leaf=0.0847611651
		6:[f51<13.5] yes=13,no=14,missing=13
			13:[f63<13.5] yes=23,no=24,missing=23
				23:[f57<10.5] yes=39,no=40,missing=39
					39:[f18<0.0159957558] yes=55,no=56,missing=55
						55:leaf=-0.0270912554
						56:leaf=-0.0510091968
					40:[f73<3.5] yes=57,no=58,missing=57
						57:leaf=0.142228752
						58:leaf=-0.0525471233
				24:[f14<4885.5] yes=41,no=42,missing=41
					41:leaf=-0.0486629941
					42:leaf=0.142294332
			14:leaf=0.104043983
booster[99]:
0:[f0<1.81254864] yes=1,no=2,missing=1
	1:[f0<-0.940155149] yes=3,no=4,missing=3
		3:leaf=-0.0446291082
		4:leaf=0.103783719
	2:[f6<1.334512] yes=5,no=6,missing=5
		5:[f6<-4.86157894] yes=7,no=8,missing=7
			7:leaf=-0.0450935066
			8:leaf=0.103506736
		6:[f11<6.29667556e-05] yes=9,no=10,missing=9
			9:[f11<-0.000118131502] yes=11,no=12,missing=11
				11:leaf=-0.0519123152
				12:leaf=0.111812711
			10:[f2<1.54752815] yes=13,no=14,missing=13
				13:[f2<-16.9859924] yes=15,no=16,missing=15
					15:leaf=-0.0450212397
					16:leaf=0.104063623
				14:[f10<0.0848113596] yes=17,no=18,missing=17
					17:[f10<-0.00758330105] yes=19,no=20,missing=19
						19:leaf=-0.0522403307
						20:leaf=0.106142394
					18:[f8<0.0245545022] yes=21,no=22,missing=21
						21:leaf=0.141326904
						22:leaf=-0.0512495935
booster[100]:
0:[f30<-659.755127] yes=1,no=2,missing=1
	1:[f30<-1770.68726] yes=3,no=4,missing=3
		3:leaf=-0.0522617809
		4:[f14<186293] yes=5,no=6,missing=5
			5:[f25<0.175380886] yes=7,no=8,missing=7
				7:[f11<7.84851837] yes=9,no=10,missing=9
					9:leaf=-0.0459940992
					10:[f15<-0.11734888] yes=11,no=12,missing=11
						11:leaf=-0.0402543209
						12:leaf=0.103311099
				8:leaf=-0.0490435213
			6:leaf=-0.0511179082
	2:leaf=-0.0525147617
booster[101]:
0:[f64<8.5] yes=1,no=2,missing=1
	1:[f58<12.5] yes=3,no=4,missing=3
		3:[f14<84.5] yes=7,no=8,missing=7
			7:[f88<0.5] yes=15,no=16,missing=15
				15:[f14<44.5] yes=29,no=30,missing=29
					29:leaf=-0.0488868542
					30:leaf=0.146010399
				16:leaf=-0.0522303469
			8:[f9<195.373016] yes=17,no=18,missing=17
				17:[f42<192.332031] yes=31,no=32,missing=31
					31:[f25<0.0852217078] yes=45,no=46,missing=45
						45:leaf=-0.0265764743
						46:leaf=-0.052350115
					32:[f53<4.5] yes=47,no=48,missing=47
						47:leaf=0.0232108366
						48:leaf=-0.0371765494
				18:[f9<303.744385] yes=33,no=34,missing=33
					33:leaf=0.066067569
					34:leaf=-0.0406772159
		4:[f59<12.5] yes=9,no=10,missing=9
			9:leaf=-0.052288074
			10:[f14<158080.5] yes=19,no=20,missing=19
				19:leaf=-0.03469868
				20:leaf=0.130641907
	2:[f91<11.5] yes=5,no=6,missing=5
		5:[f45<5.21964694e-10] yes=11,no=12,missing=11
			11:[f76<9.5] yes=21,no=22,missing=21
				21:[f50<2.5] yes=35,no=36,missing=35
